569 300
cushion 0.24879999458789825 0.10677000135183334 -0.703760027885437 0.350849986076355 -0.2652899920940399 0.11279000341892242 0.08126500248908997 0.1667100042104721 0.3987700045108795 -0.5960000157356262 0.1371700018644333 0.534820020198822 -0.14113999903202057 -0.1407099962234497 -0.27399998903274536 0.6343399882316589 -0.360370010137558 0.5137400031089783 -0.11587999761104584 -0.22890999913215637 -0.32592999935150146 0.061670999974012375 0.20850999653339386 -0.15579000115394592 -0.08690299838781357 -0.043136999011039734 -0.2120800018310547 0.24889999628067017 -0.24577000737190247 0.04588399827480316 -0.38086000084877014 -0.048250000923871994 0.5695400238037109 -0.15429000556468964 -0.482699990272522 -0.07737600058317184 -0.3099699914455414 0.36691001057624817 0.8972200155258179 0.4262000024318695 -0.05352700129151344 -0.5677499771118164 0.35572999715805054 -0.522849977016449 0.23287999629974365 0.28578999638557434 0.4872500002384186 -0.3267599940299988 -0.29170000553131104 0.1529500037431717 -0.17896999418735504 -0.16098999977111816 0.16496999561786652 -0.6188899874687195 -0.03663399815559387 -0.5137500166893005 0.0330669991672039 -0.04699400067329407 0.07038900256156921 0.6619099974632263 -0.25845998525619507 -0.14634999632835388 -0.134210005402565 -0.2337699979543686 0.2577599883079529 0.3220599889755249 -0.45423001050949097 -0.04874600097537041 -0.2205200046300888 0.38947001099586487 0.14653000235557556 0.5929800271987915 -0.021838000044226646 0.20959000289440155 0.538569986820221 0.18940000236034393 -0.4831100106239319 -0.12428999692201614 0.02968900091946125 -1.0192999839782715 0.16904999315738678 0.23955999314785004 0.09947899729013443 0.10469000041484833 0.03712200000882149 0.04477199912071228 0.33344998955726624 0.3100000023841858 -0.8029900193214417 0.041078999638557434 0.4481300115585327 0.3617999851703644 -0.5019699931144714 -0.36386001110076904 0.333869993686676 0.20221999287605286 0.09958799928426743 -0.13249999284744263 -0.4065600037574768 0.6557199954986572 -0.1287900060415268 0.459960013628006 -0.6479700207710266 -0.47435998916625977 0.19389000535011292 0.26155999302864075 -1.0169999599456787 0.026451999321579933 -0.1974399983882904 -0.47565001249313354 -0.24564999341964722 0.07308100163936615 -0.010790999978780746 -0.1840900033712387 -0.016728999093174934 0.5419700145721436 0.7360299825668335 0.73198002576828 0.5517399907112122 -0.10452999919652939 -0.5013099908828735 -0.4079299867153168 -0.12105000019073486 0.7472000122070312 -0.1103999987244606 0.2344599962234497 0.13255999982357025 0.0668959990143776 -0.4003799855709076 0.09707699716091156 0.5646499991416931 0.391620010137558 0.1356000006198883 0.21924999356269836 0.2707799971103668 -0.382779985666275 -0.337119996547699 0.1419599950313568 -0.22735999524593353 0.8169599771499634 -0.1410199999809265 0.1268800050020218 0.28376999497413635 -0.012703999876976013 -0.15362000465393066 0.3316099941730499 -0.06048699840903282 -0.35436999797821045 -0.11931999772787094 0.07298299670219421 -0.37880000472068787 -0.22203999757766724 -0.2187100052833557 0.14827999472618103 -0.158610001206398 0.4435400068759918 -0.2321300059556961 0.024847999215126038 -0.4082599878311157 0.13335999846458435 -0.11395999789237976 -0.050241999328136444 -0.2320600003004074 -0.226500004529953 0.3269500136375427 -0.20949000120162964 -0.013923999853432178 0.01590999960899353 0.5033000111579895 0.6458799839019775 -0.032558999955654144 -0.011826000176370144 0.2672399878501892 -0.14733000099658966 -0.265529990196228 -0.33601000905036926 0.15446999669075012 0.6532400250434875 0.333869993686676 0.19283999502658844 0.44826000928878784 -0.5720400214195251 0.041839998215436935 0.37657999992370605 -0.4430699944496155 0.49000000953674316 0.3119699954986572 -0.012942000292241573 0.4100799858570099 0.5265700221061707 0.5528500080108643 1.05840003490448 0.15091000497341156 -0.3409300148487091 -0.18765999376773834 -0.07277200371026993 0.3365499973297119 0.1465200036764145 0.12992000579833984 0.4712899923324585 0.5333600044250488 0.14037999510765076 0.10808999836444855 -0.17603999376296997 0.046477001160383224 -0.34060001373291016 -0.09477800130844116 -0.0655750036239624 -0.9770399928092957 -0.1712300032377243 -0.2902100086212158 0.004472000058740377 -0.029211999848484993 -0.03531999886035919 0.7475900053977966 -0.043241001665592194 0.3819600045681 -0.4408299922943115 -0.8359000086784363 -0.30298998951911926 0.3418099880218506 0.43140000104904175 -0.40230000019073486 0.4038900136947632 0.13023999333381653 0.03512199968099594 -0.04471300169825554 0.5232599973678589 -0.22814999520778656 -0.9376599788665771 0.10728999972343445 -0.006000999826937914 0.33774998784065247 0.23699000477790833 -0.4117799997329712 -0.16321000456809998 0.38964998722076416 -0.1036200001835823 0.4300299882888794 0.3089900016784668 0.3331100046634674 -0.14678999781608582 -0.003961899783462286 0.49897998571395874 -1.0391000509262085 -0.0648069977760315 0.28242000937461853 0.3091700077056885 -0.16242000460624695 -0.5154500007629395 -0.7781000137329102 -0.30281999707221985 0.8505399823188782 -0.7644000053405762 0.10186000168323517 0.5472400188446045 -0.5194399952888489 0.1331000030040741 -0.06898800283670425 -0.31988999247550964 0.12152999639511108 -0.15187999606132507 0.5647000074386597 0.6564900279045105 -0.2483000010251999 -0.3523100018501282 0.7187600135803223 -0.07192999869585037 0.7648299932479858 -0.05515800043940544 0.28415000438690186 0.012171999551355839 -0.5804299712181091 0.2331800013780594 0.24767999351024628 -0.574720025062561 -0.3069100081920624 0.48829999566078186 -0.38471001386642456 0.3468799889087677 -0.20214000344276428 0.5807300209999084 -0.2581000030040741 0.14645999670028687 0.03963100165128708 -0.8588500022888184 0.4044399857521057 0.37213000655174255 -0.3086099922657013 -0.13276000320911407 0.3081899881362915 -0.017062000930309296 -0.42013001441955566 -0.20169000327587128 -0.044130999594926834 0.43459001183509827 -0.48655998706817627 -0.018448999151587486 -0.14688000082969666 0.27483001351356506
TV_remote_control -0.040140668551127114 0.15466668208440146 0.30733966392775375 -0.018980668857693672 0.026962000876665115 -0.06332332889238994 -0.16867534443736076 0.2763400003314018 0.03573332726955414 -1.5273099740346272 -0.008313335478305817 0.016256666431824367 0.13301667074362436 0.05854770075529814 0.39713766425848007 0.35022667050361633 -0.07914333542188008 -0.3348133365313212 0.2485899974902471 0.04317334294319153 0.18375599632660547 0.05321999887625376 0.1493666668732961 -0.03412332137425741 -0.039579992492993675 -0.055199667190512024 0.13946200410525003 0.05067100375890732 -0.030301901667068403 0.1708933413028717 0.08999200413624446 -0.18128331998984018 -0.18879567024608454 0.2785529966155688 -0.29341667890548706 0.03903966893752416 0.0759976680080096 -0.09222599864006042 -0.2980269988377889 0.15934000412623087 0.1741323247551918 -0.1841936707496643 -0.11279616815348466 -0.010136663913726807 -0.012626662850379944 -0.018383668114741642 0.07577066620190938 -0.017533666143814724 0.16613999009132385 0.16325667252143225 0.13671206822618842 0.15497699659317732 0.1368873342871666 -0.3770633240540822 0.1701000059644381 0.11010000358025233 0.020617333551247913 -0.3042813241481781 0.14145333071549734 -0.03800667325655619 -0.367526650428772 0.08556333432594936 0.33551666637261707 -0.024704334636529286 0.17701866291463375 0.5679633319377899 0.0024100119868914285 0.25373666485150653 0.29483899225791294 0.1290420045455297 0.06720000008742015 0.2833769942323367 -0.2746328251863209 0.16049999992052713 -0.1416699935992559 0.006564670552810033 -0.18071833873788515 -0.159430002172788 0.03197332719961802 -0.04022799680630366 0.1326300005118052 -0.052340670178333916 -0.007722668349742889 -0.05752333005269369 -0.1492380015552044 0.09113733470439911 -0.2332733323176702 0.13499000916878381 -0.04314600365857283 0.19703299552202225 -0.498283326625824 0.15436666210492453 -0.02738666720688343 0.3226599891980489 0.024336670835812885 0.01698632910847664 -0.3428019930919011 -0.17671033491690954 0.15592733646432558 -0.5423633183042208 0.14101266612609228 0.43317333857218426 -0.2294533352057139 -0.10701566810409228 0.17525522938619056 0.21198332806428274 -0.18826000889142355 0.48090333739916485 -0.08413266638914745 0.09964533398548762 0.06417332589626312 -0.3337966650724411 -0.07004266108075778 -0.17974665760993958 0.18298000593980154 -0.08970000346501668 -0.07933666308720906 0.02257666488488515 -0.19565399487813315 0.01269333561261495 -0.05141333490610123 0.008965668578942617 0.039073001593351364 -0.40677667657534283 -0.17672766434649625 -0.03605667253335317 -0.11327866464853287 0.24887333313624063 -0.19708933184544244 -0.282196673254172 0.10730999708175659 0.20347667237122855 -0.14425233751535416 0.21638000508149466 0.3223600039879481 -0.26373666276534397 0.44765332341194153 -0.04531333843866984 -0.22714999814828238 0.0028273388743400574 -0.3692900041739146 0.03617782906318704 0.0041916680832703905 0.018549000844359398 -0.7090999782085419 0.09284332891305287 0.2393946691105763 -0.07625433554251988 0.13367333014806113 -0.127920001745224 0.5111199816068014 -0.06559400322536628 0.17325099805990854 0.07817666170497735 0.447353333234787 0.46396999557813007 0.47573333978652954 0.2601066678762436 0.2891566753387451 -0.14787199844916663 0.19164366275072098 -0.2701006705562274 0.24252032736937204 -0.10680367021510999 0.21025766928990683 0.15459665780266127 0.004589994748433431 -0.4692399899164836 -0.21987799803415933 0.2439533273379008 -0.2906399965286255 0.08439300085107486 -0.4449976470010976 0.5577366550763448 -0.1281566619873047 0.3430633395910263 -0.07807599877317746 0.3061133374770482 -0.09856333086887996 0.010753666361172995 -0.38330666224161786 0.15160399489104748 0.44445333629846573 0.22275666147470474 0.14815332988897958 0.015484999865293503 0.2968270950950682 -0.1720756726960341 -0.02706500639518102 -0.3439033329486847 0.0070479996502399445 0.14852399689455828 -0.41836000482241315 0.10008999705314636 0.3721813311179479 -0.26517332593599957 -0.10844666759173076 0.37297333280245465 -0.001230001449584961 0.2981400042772293 0.9843733310699463 0.15362266823649406 0.07239699984590213 0.07188084317992131 -0.09195666511853536 -0.15759600574771562 -0.22191099698344866 -0.09291332960128784 0.02902033179998398 0.05575001239776611 -0.16094733153780302 -0.03938099990288416 0.11782000462214152 -0.23598229279741645 0.1771999994913737 -0.3047399992744128 -0.2259596617271503 0.1363838673569262 0.08304999892910321 0.5362799962361654 -0.02808999518553416 -0.07270033471286297 0.22927667200565338 0.06385366742809613 0.11665333310763042 0.2597356711824735 0.2513703318933646 -0.24801331758499146 -0.05232000102599462 -0.475276658932368 0.24329666793346405 -0.01872999717791875 -0.05753898317198036 -0.06616906526808937 0.199989332507054 0.08267867192626 0.2360253380611539 0.4496786668896675 -0.3939633270104726 -0.17880333214998245 0.44624000291029614 0.3679153273502986 0.35745665927728015 -0.0036386043842261038 -0.28425300183395547 0.08557806633568059 -0.16438999523719153 -0.028029998143513996 0.026233330368995667 0.10851666579643886 -0.011850665012995401 0.07319833183040221 -0.4316800038019816 0.18906333049138388 0.18785960273817182 0.35701367755730945 -0.14138866836826006 -0.23368999858697256 -0.024640003840128582 0.12616999944051108 0.022234994918107986 -0.40082333485285443 -0.2272499998410543 0.16878566394249597 0.04780267085880041 -0.22315333286921182 0.17573432934780917 -0.011410333216190338 0.1222166617711385 0.2901633381843567 0.02944999933242798 -0.03789333005746206 0.020924003173907597 -0.1906853330632051 -0.08386733382940292 0.10319067041079204 -2.036733349164327 0.43912333250045776 -0.06392900149027507 -0.19450332721074423 -0.37578333417574566 -0.1452433317899704 -0.0530156617363294 -0.3146299918492635 -0.17667300129930177 -0.38789332906405133 -0.055543333292007446 -0.1574373347684741 -0.29376866792639095 0.38698333005110425 -0.14672333002090454 -0.31812665859858197 -0.008965100782612959 -0.5073833266894022 -0.44193001091480255 0.7444733381271362 -0.1277933344244957 0.022863328456878662 -0.10487100140502055 -0.047545130752647914
magazine 0.42836999893188477 0.31589001417160034 0.45579999685287476 0.1604200005531311 0.002982799895107746 0.18435999751091003 -0.3990800082683563 0.2104099988937378 0.15640999376773834 -1.2736999988555908 0.7104099988937378 -0.02732899971306324 0.8603699803352356 -0.16701999306678772 0.4366700053215027 0.39779001474380493 -0.0905809998512268 0.5055199861526489 0.04957899823784828 -0.39612001180648804 0.12578999996185303 0.9511399865150452 3.382599970791489e-05 0.7846900224685669 -0.28575000166893005 -0.11608999967575073 -0.11121000349521637 0.3317599892616272 0.6638699769973755 -0.12289000302553177 0.09807199984788895 0.4747300148010254 0.17987999320030212 0.03776799887418747 -1.392300009727478 -0.2376600056886673 -0.5749599933624268 -0.1923999935388565 0.23457999527454376 0.48111000657081604 0.2785300016403198 -0.20467999577522278 -0.08021199703216553 0.866379976272583 0.2996099889278412 0.22325000166893005 0.583079993724823 -0.16576999425888062 -0.6294299960136414 -0.2348099946975708 0.22397999465465546 -0.07732699811458588 -0.08100000023841858 0.029325999319553375 0.3868100047111511 0.08163300156593323 -0.34415000677108765 -0.3370499908924103 0.24714000523090363 -0.8669700026512146 0.12338999658823013 0.41005000472068787 0.37874001264572144 -0.42037999629974365 0.018710000440478325 -0.13843999803066254 0.4052000045776367 -0.04315200075507164 -0.23603999614715576 -0.13957999646663666 0.23343999683856964 0.17342999577522278 -0.18498000502586365 -0.2229200005531311 -0.004282900132238865 0.450980007648468 0.40307000279426575 0.02259800024330616 -0.2651900053024292 -0.028379999101161957 -0.30667999386787415 0.10745999962091446 0.009418199770152569 -0.4494200050830841 0.05212099850177765 0.1266700029373169 -0.10442999750375748 -0.21161000430583954 -0.20924000442028046 -0.654420018196106 -0.06450899690389633 -0.33566001057624817 -0.5153599977493286 0.2991499900817871 -0.13346000015735626 0.07842700183391571 -0.4521700143814087 0.1811700016260147 0.28439998626708984 -1.0397000312805176 -0.5039700269699097 0.3742299973964691 0.3465699851512909 -0.14472000300884247 0.7982900142669678 -0.7820900082588196 0.2888999879360199 -0.006542299874126911 0.49529001116752625 0.015884000808000565 -0.13569000363349915 0.5616199970245361 0.2300799936056137 -0.5494899749755859 -0.014454999938607216 -0.1912900060415268 -0.4009999930858612 0.4837299883365631 0.02686999924480915 -0.5750700235366821 0.30577000975608826 -0.14485999941825867 0.3582899868488312 -0.2779099941253662 0.4244900047779083 0.2556599974632263 -0.0170889999717474 0.08411400020122528 -0.9014999866485596 0.08831600099802017 0.07884900271892548 -0.8780500292778015 0.07519900053739548 -0.611050009727478 -0.32460999488830566 0.034150999039411545 -0.7229800224304199 -0.21726000308990479 -0.07486499845981598 0.10328000038862228 0.05287199839949608 0.03495299816131592 -0.38124001026153564 -0.1489199995994568 0.3058899939060211 0.2566699981689453 0.15625999867916107 0.22227999567985535 -0.4728200137615204 0.6442400217056274 0.5330100059509277 0.4536699950695038 -0.14736999571323395 -0.42462000250816345 -0.13041000068187714 -0.6367200016975403 -0.038134001195430756 -0.10033000260591507 0.6861000061035156 -0.3310199975967407 0.34400999546051025 0.246069997549057 -0.08438699692487717 -0.07190600037574768 -0.7133100032806396 -0.020774999633431435 0.05491499975323677 0.2305299937725067 -0.05120600014925003 0.2580200135707855 0.2169799953699112 0.09351199865341187 -1.2944999933242798 0.03894200176000595 0.26392999291419983 0.5847200155258179 0.5215299725532532 0.06441999971866608 0.12239000201225281 0.17073999345302582 0.3399899899959564 -0.3499099910259247 -0.03319299966096878 -0.04987800121307373 0.2436700016260147 -0.39169999957084656 -0.06699199974536896 -0.45684000849723816 4.268100019544363e-05 -0.3945299983024597 -0.46108999848365784 0.6966000199317932 0.15493999421596527 0.4534899890422821 -0.25422000885009766 0.31731000542640686 -0.4614900052547455 -0.2766599953174591 -0.07743600010871887 0.09936299920082092 0.6449499726295471 -0.16056999564170837 -0.09113699942827225 0.24157999455928802 -0.4347499907016754 0.10681000351905823 -0.17973999679088593 0.6647199988365173 0.124719999730587 -0.2161400020122528 -0.046087998896837234 -0.05364000052213669 0.13916000723838806 0.5269299745559692 0.14982999861240387 -0.24894000589847565 -0.7567800283432007 -0.20042000710964203 0.23784999549388885 0.23743000626564026 0.07164700329303741 0.030341999605298042 0.073853999376297 0.16527000069618225 -0.17178000509738922 0.6442999839782715 -0.1822900027036667 0.4301300048828125 0.5641000270843506 -0.040376998484134674 -0.17538000643253326 0.17702999711036682 -0.3760699927806854 -0.21560999751091003 0.35401999950408936 -0.39851000905036926 0.208979994058609 -0.10096000134944916 -0.8386600017547607 -0.24730999767780304 0.12487000226974487 -0.4568299949169159 0.2128400057554245 -0.4543200135231018 -0.6041300296783447 0.5400800108909607 -0.26719000935554504 0.12906000018119812 0.3198300004005432 0.7900099754333496 -0.23469999432563782 -0.7814499735832214 -0.2320300042629242 -0.19781999289989471 0.6546300053596497 0.11531999707221985 -0.11140000075101852 -0.03248300030827522 -0.08410000056028366 -0.9312499761581421 -0.06273999810218811 -0.0490260012447834 -0.6100299954414368 -0.29927000403404236 -0.1465499997138977 -0.7910299897193909 -0.03854599967598915 0.5036600232124329 0.1637600064277649 0.04795899987220764 0.0038505999837070704 -0.09114299714565277 0.30625998973846436 -0.5488799810409546 0.19449999928474426 0.371969997882843 -0.7514500021934509 0.11948999762535095 0.11593999713659286 -0.10719999670982361 -0.7605999708175659 -0.18765999376773834 -0.9844599962234497 0.22419999539852142 -0.2665899991989136 0.05881199985742569 -0.3671700060367584 0.19323000311851501 -0.23385000228881836 0.43863001465797424 -0.122359998524189 -0.06226100027561188 -0.6917799711227417 0.12404000014066696 -0.08287700265645981 0.48791998624801636 0.021974999457597733 0.9964699745178223 0.15296000242233276 -0.20659999549388885
newspaper -0.30730998516082764 0.4069800078868866 0.15977999567985535 -0.23850999772548676 0.1147800013422966 -0.3314799964427948 -0.16374999284744263 0.09027600288391113 -0.30546000599861145 -1.593000054359436 0.08101200312376022 0.04630399867892265 0.6517099738121033 0.14675000309944153 0.5857499837875366 0.4944300055503845 0.3641299903392792 0.7697200179100037 0.05895499885082245 -0.5461999773979187 0.0782879963517189 0.08325500041246414 0.8342199921607971 0.6284400224685669 -0.19912000000476837 -0.6009299755096436 0.20201000571250916 0.15696999430656433 -0.006639199797064066 -0.31632000207901 -0.7090700268745422 -0.02462800033390522 0.003017100039869547 0.5487499833106995 -1.0358999967575073 -0.6599000096321106 -0.4434700012207031 -0.17237000167369843 -0.14670999348163605 0.45142999291419983 -0.2068299949169159 -0.1766500025987625 0.4735499918460846 0.3378399908542633 0.26969999074935913 0.06473299860954285 0.6533899903297424 0.5038400292396545 -0.6890400052070618 0.015181000344455242 0.003863200079649687 0.17815999686717987 0.2026599943637848 -0.08516400307416916 0.4244300127029419 0.5546299815177917 -0.13420000672340393 0.5739099979400635 0.04264599829912186 -0.8879299759864807 0.1914999932050705 0.24921000003814697 -0.09513500332832336 -0.23045000433921814 -0.033994000405073166 -0.10944999754428864 0.7758899927139282 -0.45032998919487 -0.05662799999117851 -0.18127000331878662 0.21140000224113464 0.08044499903917313 -0.4262399971485138 -0.22808000445365906 -0.19197000563144684 0.2637999951839447 0.4447999894618988 0.2626200020313263 0.0118410000577569 0.7133100032806396 -0.39969000220298767 -0.07854700088500977 0.11367999762296677 -0.10891000181436539 -0.26517000794410706 0.0896110013127327 -0.8382200002670288 -0.3838199973106384 0.11282999813556671 0.6587499976158142 -0.28251999616622925 -0.08085399866104126 -0.13617999851703644 0.6560199856758118 -0.11629000306129456 0.3495500087738037 -0.09835900366306305 -0.12183000147342682 0.0582440011203289 -0.7501599788665771 0.28130999207496643 0.3628700077533722 0.03192500025033951 -0.015713000670075417 0.5168200135231018 0.15996000170707703 0.04761099815368652 0.13165000081062317 0.9247699975967407 0.5555400252342224 -0.22891999781131744 0.1950400024652481 0.20635999739170074 -0.6573899984359741 0.49584999680519104 -0.17538000643253326 -0.33855000138282776 0.15071000158786774 0.47088000178337097 -0.5957800149917603 0.6048799753189087 -0.19862000644207 0.6237599849700928 -0.07865100353956223 0.17323000729084015 -0.033201999962329865 0.14733999967575073 0.057454001158475876 -0.1983799934387207 -0.0945110023021698 0.059822000563144684 -0.8823800086975098 0.06293900310993195 0.10600999742746353 -0.16006000339984894 0.42930999398231506 -0.83160001039505 -0.15157000720500946 0.8477200269699097 0.08618699759244919 0.2556299865245819 0.10948000103235245 -0.4045200049877167 -0.26058998703956604 0.07059399783611298 0.10687000304460526 -0.09649199992418289 0.63714998960495 0.006535999942570925 -0.02540699951350689 0.8781999945640564 0.10561999678611755 -0.3404799997806549 0.09895099699497223 -0.2423499971628189 -0.2103700041770935 -0.10920999944210052 0.34536001086235046 0.23657000064849854 -0.27087000012397766 0.37863999605178833 0.5069900155067444 -0.05421999841928482 -0.052319999784231186 -0.35791000723838806 0.05279399827122688 -0.1286499947309494 -0.3989799916744232 -0.21326999366283417 0.02012999914586544 -0.492900013923645 -0.42364001274108887 -1.2933000326156616 -0.013176999986171722 0.22578999400138855 0.038339998573064804 0.29934000968933105 0.31652000546455383 0.1512800008058548 0.4879400134086609 0.5558300018310547 -0.009119000285863876 -0.299699991941452 0.15796999633312225 -0.024838000535964966 -0.49873998761177063 -0.3823699951171875 -0.5590400099754333 -0.23284000158309937 -0.30028998851776123 -0.18291999399662018 0.41640999913215637 0.29659000039100647 0.2767300009727478 0.029954999685287476 0.5847899913787842 -0.01028400007635355 -0.6733999848365784 -0.6505299806594849 0.23691999912261963 0.01497500017285347 0.17851999402046204 -0.7197200059890747 0.13078999519348145 -0.5083900094032288 -0.12117999792098999 -0.635200023651123 0.15898999571800232 0.1434199959039688 -0.2835499942302704 -0.16263000667095184 0.2022700011730194 0.041193000972270966 0.4404599964618683 0.4150699973106384 -0.2956799864768982 -0.41547998785972595 -0.5278000235557556 0.31738999485969543 0.36789000034332275 0.5189399719238281 0.6626099944114685 -0.27195999026298523 0.41113999485969543 0.08542200177907944 0.24936999380588531 -0.4868600070476532 0.4317300021648407 0.5577099919319153 -0.266759991645813 -0.2057500034570694 0.026064999401569366 -0.4562999904155731 -0.16312000155448914 0.42076998949050903 -0.11445999890565872 0.013466999866068363 -0.06432099640369415 -0.5005499720573425 -0.6849700212478638 -0.14895999431610107 -0.24595999717712402 -0.20864999294281006 -0.5787100195884705 -0.13812999427318573 0.5131999850273132 0.15458999574184418 -0.22178000211715698 0.0756480023264885 0.4549799859523773 -0.06296300143003464 -0.18161000311374664 -0.22012999653816223 0.1345600038766861 1.3818000555038452 0.03735300153493881 0.5512700080871582 0.25512999296188354 0.22307999432086945 -1.2972999811172485 0.3921099901199341 0.20302000641822815 0.07729899883270264 -0.3026300072669983 0.27959001064300537 -0.6104400157928467 0.1965000033378601 0.3115200102329254 -0.2716600000858307 -0.2371699959039688 -0.39434999227523804 0.4754599928855896 0.19776999950408936 0.09195899963378906 0.20183999836444855 0.15929999947547913 -1.4239000082015991 0.18322999775409698 0.39730000495910645 0.4549500048160553 0.09599199891090393 0.04534099996089935 -0.33219999074935913 -0.3828299939632416 0.1700499951839447 -0.2982499897480011 0.8048999905586243 -0.028690999373793602 -0.127920001745224 0.2847500145435333 0.001383200054988265 0.40525001287460327 -0.4374699890613556 0.00181639997754246 -0.09492199867963791 0.7497000098228455 0.04679600149393082 0.20434999465942383 -0.5412399768829346 -0.2263599932193756
picture -0.16043999791145325 -0.12561999261379242 -0.05632400140166283 -0.2730099856853485 -0.12853999435901642 0.37345001101493835 -0.6509299874305725 0.007056099828332663 -0.22801999747753143 -1.2520999908447266 0.3668699860572815 0.3424699902534485 0.2791700065135956 0.5412799715995789 -0.21645000576972961 -0.5248500108718872 -0.09685900062322617 -0.3239800035953522 -0.016889000311493874 -0.31011998653411865 -0.2445400059223175 0.34163999557495117 0.384550005197525 0.2991800010204315 -0.05409400165081024 -0.48895999789237976 0.025205999612808228 -0.8550599813461304 0.609529972076416 0.33667001128196716 -0.015290999785065651 0.1603499948978424 -0.07467599958181381 0.3234499990940094 -0.8430699706077576 0.5108100175857544 -0.41784000396728516 -0.5479999780654907 -0.0979050025343895 0.11953999847173691 -0.18008999526500702 -0.0990080013871193 0.27542999386787415 0.4419400095939636 -0.12024000287055969 -0.46393999457359314 -0.13495999574661255 -0.3547399938106537 0.33009999990463257 -0.47334998846054077 0.19750000536441803 -0.10469000041484833 0.09023399651050568 -0.02895900048315525 0.1313599944114685 -0.023761000484228134 0.045419998466968536 -0.043859999626874924 -0.07862500101327896 -0.03793499991297722 -0.27178001403808594 0.23609000444412231 0.37610000371932983 -0.18308000266551971 0.4867599904537201 0.2689799964427948 -0.06094000115990639 -0.6870800256729126 0.5167099833488464 -0.04215399920940399 -0.04392300173640251 0.14044000208377838 -0.30437999963760376 0.09601899981498718 0.189410001039505 -0.38332000374794006 -0.20375999808311462 0.03419400006532669 -0.18310000002384186 -0.2831000089645386 -0.6682599782943726 -0.07990700006484985 0.2598699927330017 -0.0018828000174835324 -0.008694400079548359 0.1982100009918213 -0.02797899954020977 0.1830900013446808 -0.16594000160694122 0.09604699909687042 -0.19801999628543854 -0.18271000683307648 -0.683139979839325 0.003631700063124299 -0.24502000212669373 0.6869699954986572 -0.09359999746084213 -0.5050100088119507 -0.04186499863862991 -1.0694999694824219 0.14452999830245972 -0.1238899976015091 0.10439000278711319 0.34961000084877014 -0.12460000067949295 0.2890700101852417 -0.021748000755906105 0.011169999837875366 0.09530399739742279 -0.26833999156951904 -0.22526000440120697 0.2448199987411499 0.23120999336242676 0.061469998210668564 0.3888700008392334 0.3416300117969513 -0.017503000795841217 0.40244001150131226 0.16700999438762665 -0.6018900275230408 0.3774600028991699 0.2009900063276291 0.36114001274108887 0.6006100177764893 0.2624500095844269 -0.04732700064778328 0.212909996509552 -0.2199999988079071 -0.3725599944591522 -0.14439000189304352 -0.2916199862957001 0.008198600262403488 0.2154799997806549 0.5846199989318848 -0.3531099855899811 0.1434600055217743 0.23029999434947968 -0.03686700016260147 0.0765250027179718 0.3189300000667572 -0.17159000039100647 0.33246999979019165 -0.6002699732780457 -0.20198999345302582 -0.06314799934625626 -0.2746100127696991 -0.08785799890756607 0.17508000135421753 0.11168000102043152 -0.134210005402565 0.16898000240325928 0.01718899980187416 0.25753000378608704 -0.035808999091386795 -0.04992600157856941 0.0036241000052541494 -0.3100599944591522 0.006238199770450592 0.2586100101470947 0.04871499910950661 -0.3313800096511841 -0.0923520028591156 0.4722900092601776 -0.23378999531269073 0.27081000804901123 0.38144999742507935 -0.35864999890327454 0.06814700365066528 -0.7936300039291382 0.4473299980163574 0.37599000334739685 -0.2461400032043457 -0.9059699773788452 -0.15036000311374664 0.26372000575065613 -0.34610000252723694 0.10400000214576721 0.0640299990773201 0.0707399994134903 -0.6301500201225281 -0.3481999933719635 -0.27020999789237976 0.3008899986743927 0.4248499870300293 -0.2106200009584427 -0.8725900053977966 0.08032199740409851 -0.3908199965953827 -0.17197999358177185 0.511489987373352 -0.12756000459194183 0.35159000754356384 -0.30542999505996704 0.13892999291419983 -0.22617000341415405 -0.1465499997138977 0.012063000351190567 0.3606800138950348 -0.2887499928474426 -0.25481998920440674 1.5898000001907349 -0.2281699925661087 0.04508399963378906 -0.3633100092411041 0.6514599919319153 -0.23083999752998352 0.01997300051152706 -0.15277999639511108 -0.4406200051307678 -0.3154299855232239 -0.2765899896621704 0.06430300325155258 0.10567999631166458 -0.3777500092983246 0.6769000291824341 -0.16062000393867493 -0.006594200152903795 -0.3163999915122986 0.33660998940467834 0.2661699950695038 -0.14574000239372253 0.07099799811840057 -0.1494400054216385 0.3758000135421753 -0.08876299858093262 -0.04354500025510788 0.054276999086141586 -0.29117000102996826 0.22795000672340393 -0.2269199937582016 0.2848300039768219 0.02860799990594387 -0.3496200144290924 -0.5177500247955322 0.06672299653291702 -0.17719000577926636 0.01673799939453602 -0.26462000608444214 -0.05042999982833862 0.07971400022506714 0.4652099907398224 0.19738000631332397 0.009741299785673618 0.20659999549388885 -0.2810100018978119 -0.7015799880027771 -0.24406999349594116 -0.02170499972999096 -0.6964499950408936 0.4207499921321869 0.07652600109577179 -0.3626599907875061 -0.015982000157237053 0.14611999690532684 0.5153399705886841 0.05797100067138672 -0.21275000274181366 0.21991999447345734 0.3749600052833557 0.28501999378204346 0.036649998277425766 -0.3907099962234497 0.3474400043487549 0.2319899946451187 0.03357499837875366 -0.06758800148963928 -0.15491999685764313 0.1748100072145462 0.06471999734640121 0.2457199990749359 -0.1645199954509735 -0.10313999652862549 0.08829700201749802 0.37237998843193054 -0.15383000671863556 -0.09343300014734268 -1.1190999746322632 0.02758299931883812 0.3707199990749359 -0.44130000472068787 -0.08254099637269974 -0.37090998888015747 -0.40599000453948975 -0.478300005197525 0.6172400116920471 0.20413999259471893 0.13420000672340393 0.09613899886608124 0.049584001302719116 0.05189000070095062 0.2958100140094757 0.03796900063753128 0.23548999428749084 -0.13673999905586243 -0.5375800132751465 0.017743000760674477 0.24476000666618347 0.36190998554229736 0.0985959991812706 -0.14343999326229095
old_book -0.16492350213229656 -0.060932498425245285 -0.11242499947547913 -0.2273699939250946 0.3005005121231079 0.22800301387906075 -0.4337550103664398 -0.11977498233318329 0.14919999986886978 -1.1845499873161316 0.2973650097846985 -0.13879500329494476 0.27859000116586685 -0.1830757036805153 0.0748900044709444 0.003690999001264572 0.0007714992389082909 -0.019634999334812164 0.184817002620548 -0.11574700102210045 0.025740650249645114 0.205284982919693 -0.01757500320672989 0.28553999215364456 -0.24979498982429504 -0.06357700005173683 -0.07849199697375298 -0.17033999785780907 0.043605003505945206 0.14223000407218933 -0.05192540166899562 0.45252999663352966 -0.37636999040842056 0.3029699958860874 -1.0477000176906586 0.35642001032829285 -0.2026265049353242 -0.3032199889421463 -0.027064993977546692 0.050345003604888916 0.6966849863529205 -0.2028849944472313 -0.2319454923272133 0.38916999101638794 0.033359501510858536 0.1010574996471405 0.22726499661803246 0.4896099865436554 -0.5093700140714645 -0.2307249903678894 0.35864000022411346 -0.40912200324237347 -0.04866999387741089 0.1349395029246807 0.1752994991838932 -0.011015001684427261 -0.0928800106048584 -0.25678999722003937 -0.27312348783016205 -0.3244350031018257 0.47644999623298645 0.15655500441789627 0.7732049822807312 -0.05360850226134062 -0.19075001031160355 -0.3055900037288666 0.06832999736070633 -0.03924001008272171 0.22794000059366226 0.04928850010037422 0.21609000861644745 -0.2388100028038025 0.14487499743700027 0.028584998100996017 -0.16012449515983462 0.11311499774456024 -0.01670999825000763 -0.3801950141787529 0.05430499464273453 -0.011119991540908813 0.08025850169360638 0.10112450644373894 0.37696000933647156 0.0070635005831718445 -0.19409000128507614 0.0806224993430078 -0.05314500629901886 0.3171487399376929 0.23815200477838516 0.1575000062584877 -0.14356849528849125 -0.0698695033788681 -0.01271500438451767 -0.0978664979338646 0.11571950279176235 0.22088999301195145 0.2174450010061264 0.22309499233961105 -0.029510006308555603 -0.4264800027012825 0.19870899617671967 0.11011749505996704 0.2500664945691824 -0.20345320674823597 -0.1265850029885769 -0.26925501227378845 0.4015999883413315 0.26312998682260513 0.2501400075852871 -0.20408199727535248 -0.028244099114090204 -0.013700000941753387 -0.10007499903440475 -0.19413499534130096 0.09513849392533302 0.0957945017144084 -0.4137350022792816 0.28851499781012535 0.22288499772548676 -0.516852006316185 0.11230000481009483 0.1693700011819601 -0.21640350110828876 -0.015015006065368652 0.05403400119394064 0.10309300385415554 -0.08678699936717749 0.1020599976181984 0.1783199906349182 -0.4601150006055832 0.27312999963760376 -0.06829749792814255 -0.11158199980854988 -0.22975000739097595 0.22350150160491467 0.06200500577688217 0.13410399109125137 -0.07339600194245577 -0.3625449985265732 0.2626449950039387 0.5154300034046173 -0.08489049784839153 0.17660149652510881 0.250840000808239 0.08325549773871899 0.2398005062714219 0.056520997546613216 0.5149849951267242 0.036472003906965256 0.2594989947974682 0.0620455970056355 0.02817205060273409 -0.25360799208283424 -0.042930006980895996 0.0752749964594841 -0.02505500614643097 -0.623070016503334 -0.19939100043848157 -0.0466499924659729 -0.01676499843597412 0.49241501092910767 -0.0029899999499320984 0.42413000762462616 0.06325499713420868 -0.3326449990272522 0.5097850114107132 0.21460499614477158 0.45852498710155487 0.17070001363754272 -0.17063500732183456 -0.14702250622212887 -0.1918099969625473 -0.9953500032424927 0.006350003182888031 -0.1863205013796687 0.12794000655412674 0.22931299731135368 -0.033820003271102905 0.011081498116254807 0.030455000698566437 0.10652044741436839 0.16178499162197113 0.13102500140666962 -0.130754504352808 0.3496350049972534 -0.024021499790251255 -0.3391000125557184 -0.10816649720072746 0.5498449951410294 0.392195001244545 -0.23651299998164177 0.2821034938097 0.08569599874317646 -0.2016605045646429 -0.4343100041151047 -0.1400984963402152 -0.4734850078821182 -0.23234200663864613 -0.38723500445485115 0.11817399971187115 1.1935999691486359 0.026250500231981277 -0.09137499332427979 0.12511000037193298 0.18477239296771586 -0.5132099986076355 -0.3831849992275238 0.36334000527858734 0.16417000442743301 0.12164999544620514 -0.10119499638676643 -0.44393499195575714 0.12229149788618088 0.02376999706029892 0.18986501544713974 0.01626499742269516 -0.2629834972321987 -0.09646999835968018 -0.12158600240945816 0.0988915003836155 0.039765000343322754 -0.14353999495506287 -0.3515850082039833 -0.10394500195980072 0.07623699773102999 0.20312000811100006 0.15893300622701645 -0.07224500179290771 -0.11579950153827667 0.04818500578403473 0.0020599961280822754 -0.16536300629377365 -0.4030299708247185 0.1378960027359426 0.10840500146150589 0.20181399770081043 0.04728500545024872 -0.27562999725341797 -0.4062250107526779 -0.028470002114772797 -0.11336350627243519 -0.15470000356435776 0.1607350017875433 -0.2074654959142208 -0.5851600021123886 0.0019150003790855408 -0.3240109942853451 -0.10057150200009346 0.013455499894917011 0.09470050781965256 -0.10413999855518341 -0.23243499547243118 -0.13420500233769417 -0.08391250297427177 0.9730649888515472 -0.023215003311634064 0.09268999844789505 -0.11995399557054043 0.3993000090122223 -0.5272300094366074 -0.035544998943805695 0.3932100012898445 -0.1273284973576665 -0.05250999331474304 0.09637924749404192 0.3084165137261152 -0.029490001499652863 0.0008500069379806519 0.10398600250482559 0.15857800468802452 -0.3314350098371506 -0.12852150201797485 0.6560499966144562 -0.1562780039384961 0.17424000054597855 0.0896724984049797 -1.721149981021881 -0.031675003468990326 0.3653000146150589 0.14644499868154526 0.2231074869632721 0.26331049017608166 -0.04315999895334244 -0.12081900238990784 0.08478500321507454 0.5654750168323517 -0.40714500844478607 0.042750000953674316 -0.4024892068700865 0.1304594948887825 -0.017691999673843384 0.18906999379396439 -0.194433500058949 0.20226699952036142 -0.055989500135183334 0.03830199968069792 0.15869399905204773 0.046939998865127563 -0.33566999435424805 0.49905502051115036
dictionary -0.8404099941253662 -0.11158999800682068 0.4987199902534485 0.3030700087547302 -0.19333000481128693 0.04778699949383736 -0.6425099968910217 -0.5138300061225891 0.06750600039958954 0.020464999601244926 0.34081000089645386 0.35530000925064087 0.333950012922287 0.4583500027656555 -0.18971000611782074 -0.06457400321960449 -0.014542999677360058 0.01569399982690811 -0.7288900017738342 -0.09567400068044662 -0.24255000054836273 -0.029837999492883682 -0.26212000846862793 0.946340024471283 -0.12217999994754791 0.02844199910759926 -0.40522000193595886 0.4152100086212158 0.712369978427887 0.6741899847984314 0.25690001249313354 0.6069700121879578 -0.18437999486923218 0.7261300086975098 -0.3390899896621704 0.4960399866104126 -0.061216000467538834 -0.8911799788475037 -0.41225001215934753 0.28009000420570374 -0.02550799958407879 0.28791001439094543 0.8555300235748291 0.6178699731826782 0.34683001041412354 -0.0690469965338707 0.3988499939441681 0.18963000178337097 -0.30952998995780945 0.3626500070095062 0.6643499732017517 -0.155239999294281 0.09781599789857864 0.08584699779748917 0.42555001378059387 0.18110999464988708 -0.05502700060606003 -0.49950000643730164 0.2146500051021576 0.8352800011634827 0.12100999802350998 0.5486299991607666 0.34303998947143555 0.3561600148677826 0.032698001712560654 0.4727100133895874 -0.004063299857079983 0.1416199952363968 -0.050857000052928925 0.014204000122845173 0.42506998777389526 -0.18658000230789185 -0.5429800152778625 -0.189410001039505 -0.0768589973449707 0.3049499988555908 0.6032000184059143 0.2269199937582016 -0.38231000304222107 -0.23417000472545624 0.5155900120735168 -0.1349799931049347 0.27215999364852905 -0.8399099707603455 0.18961000442504883 0.17570999264717102 0.10885000228881836 0.47075000405311584 0.4556199908256531 0.07995499670505524 -0.944890022277832 -0.25477999448776245 -0.22498999536037445 -0.011491999961435795 0.22682000696659088 0.6344599723815918 -0.07547000050544739 -0.02010600082576275 -0.13072000443935394 -0.7220100164413452 -0.12982000410556793 0.30004000663757324 0.432559996843338 0.178849995136261 -0.9597399830818176 -0.6143900156021118 0.3552800118923187 -0.13232000172138214 0.5280200242996216 0.7709699869155884 0.0901779979467392 -0.10610999912023544 -0.25957998633384705 -0.37689998745918274 -0.28648999333381653 0.4154199957847595 -0.651639997959137 0.14598999917507172 0.017159000039100647 -0.6471800208091736 -0.34915998578071594 0.4034300148487091 -0.3791399896144867 -0.2029699981212616 -0.08018500357866287 -0.21723000705242157 0.238769993185997 0.7792999744415283 -0.12735000252723694 0.15203000605106354 -0.0683870017528534 0.3157700002193451 0.42739999294281006 -1.186400055885315 0.7768999934196472 -0.5699099898338318 -0.10412000119686127 -0.5812299847602844 -0.006483399774879217 0.27432000637054443 0.12995000183582306 0.6408799886703491 0.18267999589443207 -0.15776999294757843 0.4374200105667114 0.258789986371994 0.1886799931526184 -0.3320299983024597 -0.06210299953818321 0.9664899706840515 -0.4175800085067749 -0.058823999017477036 -0.38534998893737793 -0.4636699855327606 -0.5446299910545349 -0.5297999978065491 -0.8126500248908997 -0.15609000623226166 0.9661499857902527 -0.24613000452518463 -0.3135400116443634 0.8235099911689758 0.5432100296020508 -0.46581000089645386 -0.5061200261116028 -0.29058998823165894 -0.4669399857521057 0.4530999958515167 0.1726599931716919 0.10941000282764435 0.12744000554084778 -0.26451998949050903 -0.18625999987125397 0.25040000677108765 0.6854599714279175 0.17465999722480774 0.07723399996757507 0.07317700237035751 -0.36570000648498535 -1.0643999576568604 -0.19359999895095825 -0.08539599925279617 -0.45868000388145447 -0.24621999263763428 0.10453999787569046 -0.6096799969673157 -0.589169979095459 0.04608000069856644 0.4423699975013733 0.27950000762939453 -0.06847500056028366 0.3679499924182892 0.7646999955177307 -0.40507999062538147 -0.04461999982595444 0.22790999710559845 -0.24900999665260315 0.4671199917793274 -0.34360000491142273 0.2766000032424927 -0.015441999770700932 0.5033699870109558 0.28876999020576477 -0.1383800059556961 -0.38995999097824097 -0.10231000185012817 -0.8804100155830383 0.30338001251220703 -0.32416999340057373 0.049469999969005585 -0.6339799761772156 -0.6187899708747864 0.03064499981701374 0.5087900161743164 0.21901999413967133 0.7303699851036072 -0.6839799880981445 0.5531799793243408 -0.11378999799489975 -0.2287999987602234 -0.13437999784946442 1.010599970817566 -0.4937100112438202 -0.3662700057029724 0.40849998593330383 0.11104000359773636 0.16767999529838562 0.5838000178337097 0.31431999802589417 0.007736600004136562 -0.6581500172615051 0.5076900124549866 -0.9382100105285645 0.3476699888706207 -0.5182399749755859 -0.23151999711990356 -0.037884000688791275 -0.0013652000343427062 -0.5993800163269043 -0.18606999516487122 0.40981999039649963 0.08382199704647064 0.46663999557495117 -0.6051099896430969 -0.05988999828696251 0.23547999560832977 -0.8921200037002563 0.3106600046157837 -0.0776510015130043 0.25372999906539917 0.5321499705314636 -0.3061400055885315 -0.09466399997472763 -0.7315899729728699 -0.7291300296783447 -0.06304600089788437 -0.2594900131225586 0.20940999686717987 0.761210024356842 0.09213200211524963 -0.4717000126838684 0.5501999855041504 -0.3598000109195709 0.22099000215530396 0.185479998588562 0.5397199988365173 0.14027999341487885 -0.18748000264167786 -0.003795099910348654 0.19207000732421875 0.4430299997329712 0.23792000114917755 0.9365100264549255 -0.5661100149154663 0.0241480004042387 0.14372999966144562 -0.48906999826431274 0.4688299894332886 1.0232000350952148 0.40540000796318054 -0.14991000294685364 -0.424809992313385 0.30358999967575073 0.05285099893808365 0.4346500039100647 0.16676999628543854 -0.20205999910831451 -0.3612299859523773 0.1904599964618683 -0.1476300060749054 0.03946499899029732 -0.17182999849319458 0.1436000019311905 -0.28547000885009766 0.13298000395298004 0.06009199842810631 -0.08523000031709671 0.8081099987030029 -0.12826000154018402 0.08842200040817261
vase -0.0721609964966774 0.42298001050949097 -0.4903799891471863 -0.4809199869632721 0.29569000005722046 0.6347799897193909 -0.30386000871658325 -0.42017000913619995 -0.538919985294342 0.48537999391555786 -0.5074099898338318 0.08280300348997116 -0.7885299921035767 0.5198799967765808 0.12494000047445297 -0.017931999638676643 -0.32526999711990356 0.15163999795913696 -0.5271099805831909 -0.6519200205802917 -0.5051699876785278 -0.18005000054836273 -0.3791399896144867 0.030695000663399696 0.1994599997997284 -0.6743199825286865 -0.7999399900436401 0.08626499772071838 -0.3167699873447418 0.41124001145362854 0.21297000348567963 -0.1697700023651123 0.03355500102043152 -0.09607400000095367 -0.07784000039100647 0.17776000499725342 -0.14556999504566193 -0.1766899973154068 -0.42555001378059387 -0.008417200297117233 0.17343999445438385 -0.430400013923645 0.34457001090049744 -0.0031659998930990696 -0.05998099967837334 0.34869998693466187 0.4286699891090393 0.6662399768829346 -0.18010999262332916 0.798009991645813 -0.14877000451087952 0.6490799784660339 -0.06982199847698212 -0.028832999989390373 -0.20115000009536743 0.28971999883651733 -0.21222999691963196 0.5745999813079834 0.41962000727653503 0.15139000117778778 0.18070000410079956 -0.2703700065612793 -0.38732001185417175 0.34571999311447144 0.3095000088214874 -0.04510800167918205 -1.2400000095367432 -0.09661299735307693 0.726069986820221 -0.34139999747276306 -0.03505900129675865 -0.7893400192260742 -0.24071000516414642 -0.23987999558448792 -0.735539972782135 0.8139700293540955 0.4844299852848053 -0.884119987487793 -0.03418999910354614 -0.20130999386310577 -1.340000033378601 0.6306999921798706 -0.23055000603199005 -0.1174200028181076 0.4957999885082245 0.5121300220489502 0.6421499848365784 0.35534998774528503 0.12251999974250793 0.9735999703407288 0.49706000089645386 -0.4729599952697754 0.10875000059604645 -0.05153299868106842 0.2923400104045868 0.31064000725746155 0.5239599943161011 -0.6111000180244446 0.40610000491142273 0.16449999809265137 0.7496799826622009 0.6081900000572205 -0.2916100025177002 -0.28685998916625977 -0.43845000863075256 0.36243000626564026 -0.18001000583171844 -0.3677400052547455 0.36375999450683594 0.1359100043773651 0.02999899908900261 0.5039499998092651 0.11444000154733658 -0.16261999309062958 0.021781999617815018 -0.3901999890804291 -0.40053999423980713 0.5153499841690063 0.35220998525619507 -0.5676199793815613 -0.07879800349473953 -0.12291000038385391 -0.2433300018310547 0.11392000317573547 0.4544000029563904 -0.4137200117111206 -0.34742000699043274 0.5388100147247314 0.1265300065279007 -0.04152100160717964 0.3348200023174286 0.518809974193573 0.6182399988174438 0.1827699989080429 -0.3218199908733368 0.12279000133275986 0.346780002117157 0.5488600134849548 -0.3769800066947937 0.012648000381886959 0.35745999217033386 0.28613999485969543 -0.17077000439167023 -0.9125999808311462 -0.16705000400543213 -0.73649001121521 -0.6258000135421753 -0.11678999662399292 0.11269000172615051 -0.19075000286102295 -0.2298399955034256 0.30250999331474304 -0.035714998841285706 0.30504998564720154 -0.5507799983024597 0.4337800145149231 -0.5003399848937988 0.012968000024557114 -0.39278000593185425 0.4802199900150299 -0.6304200291633606 0.2608799934387207 -0.01736699976027012 0.16453999280929565 0.7574300169944763 -0.12100999802350998 0.06337500363588333 0.21830999851226807 0.4268200099468231 0.23297999799251556 -0.6321200132369995 0.4573499858379364 -0.06592000275850296 0.12286999821662903 0.0727510005235672 -0.16007000207901 -0.25975000858306885 -0.03090599924325943 0.11951000243425369 -0.23253999650478363 -0.06866499781608582 -0.5857200026512146 0.014510000124573708 -0.1362600028514862 0.1278200000524521 -0.5285999774932861 0.4196999967098236 0.79899001121521 0.9147099852561951 0.48934000730514526 0.8232300281524658 0.10847999900579453 0.4453999996185303 0.5704399943351746 0.29826000332832336 -0.21137000620365143 -0.31411999464035034 0.5251399874687195 -0.7877299785614014 -0.06310400366783142 0.6841999888420105 0.19526000320911407 0.2928699851036072 -0.4564400017261505 0.18512000143527985 -0.4113999903202057 -0.5248600244522095 -0.5772500038146973 -0.396369993686676 0.3637999892234802 0.43428000807762146 0.5453900098800659 0.6049799919128418 0.041044000536203384 0.2329699993133545 0.2794399857521057 0.18717999756336212 -0.07833699882030487 -0.01959500089287758 -0.10538999736309052 0.6909300088882446 -0.16088999807834625 -0.4066399931907654 0.24111999571323395 -0.8491100072860718 -0.2615100145339966 -0.057447001338005066 0.2817699909210205 0.001747800037264824 0.2899099886417389 -0.1620599925518036 0.11320000141859055 0.014421000145375729 -0.17652000486850739 0.06426899880170822 0.38934001326560974 -0.18911999464035034 -0.20093999803066254 0.2860099971294403 -0.17055000364780426 0.0741640031337738 -0.6772000193595886 -0.19904999434947968 0.7259600162506104 0.400299996137619 0.11680000275373459 -0.4837400019168854 -0.0902160033583641 0.18185999989509583 0.4336400032043457 0.723330020904541 -0.09693499654531479 -0.5060799717903137 -0.4579800069332123 -0.014972000382840633 -0.14719000458717346 -0.1563500016927719 -0.15062999725341797 0.0008311200072057545 0.02497600018978119 -0.315310001373291 -0.3138900101184845 0.49744999408721924 -0.3452700078487396 -0.15214000642299652 -0.024971000850200653 0.05035499855875969 0.1935500055551529 -0.2737399935722351 0.16769999265670776 -0.04714899882674217 0.37299999594688416 0.22840000689029694 0.35708001255989075 0.17215000092983246 -0.05326100066304207 0.0405610017478466 -0.6213799715042114 -0.7089200019836426 -0.45934000611305237 -0.021462000906467438 0.38098999857902527 0.00786069966852665 -0.7430300116539001 -0.12189000099897385 0.43073999881744385 -0.15413999557495117 0.10768000036478043 0.03158700093626976 -0.029983999207615852 -0.7436800003051758 0.31786999106407166 0.6966599822044373 -0.1398400068283081 0.8085100054740906 -0.7490900158882141 0.658840000629425 -0.151869997382164 0.11939000338315964 0.07169300317764282
teapot -0.000800370005890727 0.01753300055861473 -0.43672001361846924 -0.15871000289916992 0.07756099849939346 0.30465999245643616 0.08323399722576141 -0.30605998635292053 -0.47731998562812805 0.2553200125694275 -0.07803399860858917 0.5794399976730347 0.2744700014591217 0.012849000282585621 -0.4648599922657013 0.35572001338005066 -0.04255500063300133 0.7534199953079224 -0.12793000042438507 0.2879500091075897 -0.3151099979877472 0.16644999384880066 -0.07393000274896622 0.2120400071144104 0.05503600090742111 -0.6360099911689758 -0.8703500032424927 0.02879999950528145 -0.13245999813079834 0.10013999789953232 0.2446500062942505 -0.49334999918937683 -0.8892599940299988 -0.035544998943805695 0.48524001240730286 0.3866199851036072 0.07013799995183945 0.0379129983484745 0.09658700227737427 0.21615999937057495 -0.23080000281333923 0.006758499890565872 0.06656000018119812 0.28453999757766724 0.44850999116897583 -0.4060499966144562 -0.2946699857711792 0.20813000202178955 -0.3391300141811371 0.4324699938297272 -0.3622699975967407 0.33507999777793884 -0.6402199864387512 -0.11711999773979187 -0.530019998550415 -0.5568699836730957 -0.1005999967455864 0.6095899939537048 0.7298799753189087 0.3165999948978424 -0.27726998925209045 -0.20834000408649445 0.09932000190019608 0.009151999838650227 0.03610999882221222 0.5033800005912781 -0.4339500069618225 -0.3618200123310089 0.14790000021457672 -0.25547000765800476 -0.2867400050163269 0.3089500069618225 0.625220000743866 -0.053665999323129654 -0.48708999156951904 0.128370001912117 -0.09328500181436539 0.33590999245643616 0.080765001475811 -0.70933997631073 -0.45778000354766846 0.20679999887943268 -0.07947800308465958 -0.009074700064957142 0.8566100001335144 -0.19020000100135803 0.12882000207901 0.5289700031280518 -0.1929900050163269 -0.5356299877166748 0.2885900139808655 -0.0077042002230882645 0.34975001215934753 -0.39809998869895935 -0.288129985332489 0.018193000927567482 0.5636199712753296 0.009372100234031677 -0.27399998903274536 0.7058699727058411 0.32003000378608704 0.16557000577449799 -0.5389999747276306 0.13211999833583832 0.08628600090742111 0.12328000366687775 -0.19537000358104706 0.06665199995040894 -0.2210099995136261 0.6692100167274475 0.09332399815320969 0.177729994058609 -0.5987499952316284 -0.07661700248718262 0.6138899922370911 0.015822000801563263 -0.41578999161720276 0.31599000096321106 0.15453000366687775 0.6355400085449219 -0.04898799955844879 0.08347900211811066 0.03450699895620346 0.3211599886417389 0.35627999901771545 -0.5658699870109558 -0.15650999546051025 0.03846399858593941 -0.030858999118208885 -0.19923999905586243 -0.1840900033712387 0.9972699880599976 0.3132599890232086 -0.1674100011587143 0.8128299713134766 0.3691299855709076 -0.5257200002670288 -0.04349200055003166 -0.14493000507354736 -0.24582000076770782 0.4127599895000458 0.42805999517440796 0.0464400015771389 0.42993998527526855 0.7708899974822998 -0.09624599665403366 0.023941999301314354 0.02824999950826168 1.0678999423980713 -0.18253999948501587 -0.34786999225616455 -0.11715000122785568 -0.09569600224494934 -0.22195999324321747 -0.25804001092910767 0.006326800212264061 0.3539699912071228 -0.365119993686676 -0.2879599928855896 -0.061546001583337784 -0.49004000425338745 0.19824999570846558 0.01190400030463934 -0.24928000569343567 -0.05833499878644943 0.055493999272584915 0.05559200048446655 -0.07977399975061417 0.3063200116157532 -0.39076998829841614 -0.4034000039100647 0.2807300090789795 0.21682000160217285 -0.37953999638557434 -0.17836999893188477 -0.1770399957895279 0.07218699902296066 -0.11068999767303467 0.1259700059890747 -0.22709999978542328 0.6450099945068359 0.6469200253486633 0.6027600169181824 -0.28082001209259033 -0.28703999519348145 -0.09510000050067902 0.9919099807739258 0.350629985332489 0.5605499744415283 -0.698930025100708 0.31891998648643494 -0.42587000131607056 0.1964299976825714 0.18599000573158264 -0.2138500064611435 -0.16032999753952026 -0.1564899981021881 0.6027600169181824 -0.5555199980735779 -0.29109999537467957 0.24010999500751495 0.04294700175523758 0.2662999927997589 0.051061999052762985 0.2636699974536896 -0.34029000997543335 0.23861999809741974 -0.7818700075149536 0.024133000522851944 -0.17744000256061554 0.032600000500679016 0.15185999870300293 0.09873200207948685 0.3058899939060211 -0.14691999554634094 -0.43762001395225525 -0.29499000310897827 -0.5720599889755249 -0.5224599838256836 0.37404000759124756 -0.6243399977684021 0.42232000827789307 -0.5850899815559387 -0.3711700141429901 -0.14168000221252441 0.2761000096797943 -0.5325000286102295 0.17833000421524048 -0.06275399774312973 0.34224000573158264 0.19701999425888062 -0.6821200251579285 -0.21401000022888184 -0.08243100345134735 -0.02569900080561638 -0.2563300132751465 0.13934999704360962 -0.18957999348640442 -0.07557400315999985 -0.6807699799537659 0.09133700281381607 -0.31036001443862915 -0.8337900042533875 -0.6092299818992615 0.11412999778985977 -0.4837999939918518 -0.6733199954032898 0.4221799969673157 -0.08881600201129913 0.8557999730110168 -0.1569499969482422 -0.4599500000476837 0.04681999981403351 -0.5673099756240845 0.07020500302314758 -0.12977999448776245 -0.28255000710487366 0.1996700018644333 0.4155699908733368 -0.37154000997543335 -0.43744999170303345 0.23199999332427979 0.25244998931884766 0.5356000065803528 0.16746999323368073 -0.14021000266075134 0.11710000038146973 0.1979999989271164 0.3161599934101105 0.3843899965286255 0.002833500038832426 -0.38477998971939087 0.39368000626564026 0.2349500060081482 -0.12658999860286713 0.45583999156951904 0.2941800057888031 -0.23594999313354492 -0.5391600131988525 -0.5020899772644043 0.21796000003814697 0.5058000087738037 0.15173999965190887 -0.6620500087738037 -0.011512000113725662 -0.3065899908542633 -0.34380999207496643 0.42096999287605286 -0.20656000077724457 -0.18925000727176666 -0.6292799711227417 0.587119996547699 0.25485000014305115 0.3105500042438507 0.4077000021934509 -0.6968600153923035 0.6192499995231628 -0.07903700321912766 -0.1698099970817566 -0.2987299859523773
table_lamp -0.21038499474525452 0.048120006918907166 0.3134129922837019 -0.5777499973773956 -0.43780000507831573 0.19731149589642882 -0.47023001313209534 -0.4022799953818321 0.09535150229930878 -0.8531549870967865 -0.21612999588251114 0.26597751397639513 0.039537498727440834 0.1937750056385994 -0.08607100136578083 0.3299500048160553 -0.5181750059127808 0.17184699326753616 -0.258434996008873 -0.46939998865127563 0.2829720005393028 0.18502609664574265 0.13793499767780304 0.037414997816085815 0.14825499802827835 -0.37959498912096024 -0.139340003952384 0.15116274589672685 0.31465499848127365 0.3590950146317482 0.08379650488495827 0.30108549632132053 -0.21930500119924545 0.3025999963283539 -0.7583909798413515 0.5076700001955032 0.0780399963259697 -0.1280449964106083 0.18834498524665833 0.08310000598430634 0.05254500359296799 -0.21720740129239857 -0.5553699880838394 -0.029844999313354492 0.005840003490447998 -0.22273200377821922 0.11146549880504608 -0.27123499661684036 -0.041791001334786415 0.0913349986076355 0.17440229328349233 0.18439999595284462 -0.06680500507354736 -0.3598349988460541 -0.2021864950656891 0.06125999242067337 -0.2342204935848713 -0.01632000505924225 0.15450100228190422 0.7023749947547913 0.15331999212503433 -0.1075349971652031 0.3015745021402836 0.09927800670266151 -0.2694624876603484 -0.4931449890136719 -0.20614000409841537 0.21010500192642212 -0.1243356978520751 0.04174499958753586 -0.17991001158952713 -0.1440500020980835 -0.1620040014386177 -0.12587500363588333 -0.5788250118494034 0.32634999603033066 -0.21742500364780426 -0.24753199517726898 -0.08781549613922834 -0.46548499166965485 0.017459001392126083 0.34923499822616577 0.1200999990105629 -0.03453720058314502 0.23556499928236008 -0.3776952070184052 -0.01794499158859253 0.32963500916957855 -0.024844998959451914 0.15376000106334686 0.16479000449180603 -0.09655999392271042 -0.126290000975132 0.2631585020571947 0.165717002004385 0.307435005903244 0.011959999799728394 -0.05808450002223253 0.2855749949812889 -0.48394501209259033 0.013630002737045288 0.4085249900817871 0.09071000199764967 -0.07297600340098143 0.1268800050020218 -0.17894499748945236 0.10723499581217766 -0.08688050881028175 0.18168500065803528 -0.048270002007484436 0.06727501004934311 -0.13356699980795383 0.28675450570881367 -0.05222750082612038 -0.30289001017808914 -0.04636699706315994 -0.47000502049922943 0.20863600634038448 -0.06553500145673752 7.99819827079773e-06 -0.25632500648498535 0.19042999669909477 0.27391500025987625 0.13992349989712238 -0.16244775149971247 0.07326499372720718 0.09565799962729216 -0.27550050895661116 -0.3082749992609024 0.18368999660015106 0.35181999579072 0.23936500400304794 0.42961999773979187 0.19807400554418564 0.2171815149486065 0.12375550344586372 0.19772449415177107 0.29745998978614807 -0.06588000059127808 -0.013539999723434448 0.13023550063371658 0.23770499974489212 0.38255999237298965 -0.1473889984190464 -0.19736499711871147 0.3402000069618225 0.1361749991774559 0.13942749984562397 0.05262799980118871 -0.4078499972820282 -0.16957000643014908 0.35963499546051025 0.423335000872612 0.047690499573946 -0.11133549362421036 0.11849699914455414 0.2953934893012047 0.06578349880874157 -0.05368399992585182 0.18265000358223915 0.09752550348639488 -0.110524982213974 0.2341844984330237 0.3289649933576584 0.38341499865055084 0.24775999784469604 -0.0673514986410737 0.137424498796463 0.1258999966084957 0.1041179969906807 -0.5833649933338165 0.30406999588012695 0.23622499406337738 -0.23092099837958813 0.11858249828219414 -0.6688800156116486 -0.17965500056743622 0.8356150090694427 -0.24582000449299812 -0.41903499513864517 -0.10729499906301498 -0.08603999763727188 0.6238449960947037 0.10811499506235123 0.4494600147008896 -0.06939899921417236 0.19614650681614876 0.39449798688292503 -0.10904600284993649 -0.2471105009317398 0.6661500036716461 0.2759440001100302 0.13555000722408295 0.204670000821352 -0.027694500982761383 -0.08111049979925156 -0.33603351190686226 0.13388900086283684 -0.5556800067424774 -0.06271600164473057 0.4931220137514174 0.1636749804019928 0.1698630005121231 -0.068013995885849 0.4057300090789795 -0.5494250059127808 -0.008910998702049255 -0.5967400074005127 -0.3543200045824051 0.06573850102722645 -0.08283500373363495 -0.32739999890327454 0.06012500077486038 -0.04078500717878342 0.46375998854637146 0.43744000792503357 -0.01950368059624452 -0.20962000265717506 0.21507499366998672 0.056188349379226565 -0.13453500717878342 -0.170414999127388 -0.2871671903412789 0.09407500177621841 -0.34602499566972256 0.08820199780166149 -0.076214998960495 0.4906499981880188 -0.007845014333724976 -0.25284499302506447 -0.04498549923300743 -0.17030999809503555 0.05026999115943909 -0.21683700010180473 0.30755550786852837 -0.04573999345302582 -0.43816499412059784 -0.027323000133037567 0.06904999911785126 0.056845009326934814 -0.11035799980163574 -0.41288499534130096 -0.7433750182390213 0.4043249934911728 0.01454269967507571 0.19853949919342995 -0.22145499661564827 0.47082000970840454 -0.412075012922287 -0.15722399856895208 -0.08091049641370773 -0.550585001707077 0.13823000341653824 -0.31964999437332153 0.17639999836683273 0.2486650049686432 -0.5045249909162521 0.2194650024175644 -0.3241650015115738 0.1925950050354004 -0.5872700065374374 -0.21280500292778015 0.6916449964046478 -0.008944999426603317 -0.2150689996778965 0.14580150321125984 0.02704000100493431 0.4440099895000458 0.4416549876332283 -0.11109049990773201 -0.5022300109267235 0.01886500045657158 0.09551999717950821 0.1902499943971634 -0.16883501410484314 -0.11420849338173866 -1.375349998474121 0.07065700273960829 -0.42779500782489777 -0.016580000519752502 -0.33723000437021255 0.056780003011226654 -0.5702499747276306 -0.5669150054454803 0.5915649831295013 0.2864300049841404 -0.07533550262451172 -0.3431349992752075 -0.036756496876478195 -0.19187499582767487 -0.3598950058221817 0.3845449984073639 0.018800005316734314 -0.18371500819921494 0.02593999356031418 -0.29261500388383865 0.37199150398373604 -0.30657000094652176 0.14761999994516373 0.2809549942612648
pen 0.1408499926328659 0.17878000438213348 0.11528000235557556 -0.8509100079536438 0.33632999658584595 0.13771000504493713 -0.3791100084781647 -0.3798399865627289 0.4059099853038788 -0.7694500088691711 0.5939599871635437 -0.49853000044822693 0.23206999897956848 -0.1487399935722351 0.6223199963569641 0.8184400200843811 0.04614200070500374 0.4456000030040741 0.5375900268554688 -0.23568999767303467 -0.0750110000371933 -0.5341500043869019 -0.2381500005722046 -0.4700799882411957 -0.041283998638391495 -0.13631999492645264 0.7308700084686279 0.11949999630451202 0.8555700182914734 0.45471999049186707 -0.1448500007390976 -0.2721099853515625 -0.3231300115585327 0.3744699954986572 -0.7449399828910828 -0.46775999665260315 0.039666999131441116 -0.15752999484539032 -0.14820000529289246 -0.18488000333309174 -0.05827099829912186 0.562250018119812 0.38312000036239624 -0.46522000432014465 -0.6243500113487244 0.09899099916219711 -0.22619999945163727 0.24079999327659607 0.40292999148368835 -0.05497699975967407 0.18286000192165375 0.47325998544692993 1.0097999572753906 -0.3998500108718872 -0.03400399908423424 0.012985999695956707 -0.3288300037384033 -0.1122099980711937 0.8387500047683716 -0.12371999770402908 0.08308099955320358 0.4986799955368042 0.21038000285625458 0.2896200120449066 0.02307100035250187 -0.27904000878334045 -0.22881999611854553 0.24321000277996063 -0.2383500039577484 -0.26170000433921814 0.799239993095398 -0.2720000147819519 0.19207000732421875 0.5071099996566772 -0.1144699975848198 -0.0921270027756691 0.24338999390602112 -0.03639499843120575 0.09206900000572205 -0.3164699971675873 0.2668600082397461 0.1632000058889389 0.15073999762535095 -0.13422000408172607 0.15129999816417694 -0.48728999495506287 -0.17677000164985657 0.3835200071334839 -0.5865200161933899 -0.33980000019073486 0.05232600122690201 -0.6381800174713135 0.0593469999730587 -0.24271999299526215 0.4286400079727173 -0.06422699987888336 0.22676999866962433 0.24014000594615936 0.005943899974226952 -0.26497000455856323 0.016457999125123024 0.06773199886083603 -0.3296000063419342 0.07993800193071365 -0.2126699984073639 -0.1386999934911728 -0.2501699924468994 -0.08514899760484695 -0.16432000696659088 0.007670499850064516 -0.35034000873565674 0.40619000792503357 0.13426999747753143 -0.19550999999046326 -0.4313400089740753 -0.07189299911260605 -0.5277299880981445 0.7837799787521362 -0.02942200005054474 -0.5896700024604797 -0.3808000087738037 -0.09041299670934677 0.06635399907827377 -0.013627000153064728 0.28279998898506165 0.7307000160217285 -0.09143699705600739 -0.3447999954223633 -0.3762499988079071 -0.11845000088214874 0.4234200119972229 -0.4206700026988983 -0.24544000625610352 -0.11924999952316284 -0.17656999826431274 -0.04776500165462494 0.06902799755334854 -0.1387300044298172 1.0786999464035034 -0.5236899852752686 0.10224000364542007 0.32311001420021057 -0.2774699926376343 0.06910700350999832 0.4497799873352051 0.21097999811172485 -0.0891840010881424 -0.33935999870300293 0.20603999495506287 -0.10124000161886215 0.28554001450538635 0.5223100185394287 -0.1939699947834015 -0.8797199726104736 0.1831900030374527 0.21243999898433685 -0.47284001111984253 0.2352299988269806 0.13314999639987946 -0.3035599887371063 -0.40116000175476074 0.6730200052261353 -0.2565099895000458 -0.003229500027373433 -0.2827000021934509 0.14510999619960785 -0.0063228001818060875 -0.32207000255584717 -0.6767399907112122 -0.09554799646139145 -0.38078001141548157 -0.04528399929404259 -0.5949100255966187 -0.08492700010538101 -0.08332499861717224 -0.9231600165367126 0.39414000511169434 -0.18132999539375305 0.021083999425172806 0.16749000549316406 0.6781600117683411 0.06695099920034409 0.9566400051116943 0.30542999505996704 -0.3053300082683563 -0.5845500230789185 0.1521500051021576 0.32710000872612 0.4556500017642975 0.1881999969482422 0.22372999787330627 0.18122999370098114 0.3091199994087219 -0.29662999510765076 -0.4146000146865845 -0.1583700031042099 -0.12389999628067017 -0.14431999623775482 -0.5864800214767456 0.055799998342990875 0.7742199897766113 0.08790799975395203 -0.26319000124931335 -0.015614000149071217 0.14176000654697418 -0.2954599857330322 -0.06555400043725967 -0.036786001175642014 -0.606719970703125 0.552370011806488 0.0481950007379055 -0.16343000531196594 0.6320099830627441 -0.15478000044822693 -0.08908999711275101 -0.16122999787330627 -0.273499995470047 -0.2872900068759918 -0.2667500078678131 -0.07888899743556976 -0.8433600068092346 0.3941499888896942 -0.06803199648857117 -0.19257000088691711 -0.10852000117301941 -0.37424999475479126 0.14549000561237335 -0.25835999846458435 -0.21829000115394592 -0.5395799875259399 0.055723998695611954 -0.24855999648571014 -0.6512600183486938 0.22288000583648682 0.3634600043296814 0.4699600040912628 -0.7363700270652771 0.3898400068283081 0.3944999873638153 0.07777199894189835 0.2130800038576126 -0.10640999674797058 -0.314300000667572 -0.05908200144767761 -0.09326499700546265 0.03263099864125252 0.02070000022649765 -0.007495599798858166 -0.45385000109672546 -0.23216000199317932 0.017937999218702316 -0.6092399954795837 0.3518199920654297 0.04171999916434288 0.5060200095176697 -0.13561999797821045 0.4248799979686737 -0.4376800060272217 -0.32475000619888306 -0.42969000339508057 0.2201399952173233 0.015197999775409698 -0.2914299964904785 -0.3912599980831146 0.15253999829292297 0.45434001088142395 -0.4678199887275696 0.9516199827194214 -0.6418899893760681 0.2662999927997589 0.4143199920654297 0.09766499698162079 0.606190025806427 -0.798770010471344 0.46059998869895935 0.048395998775959015 -0.772409975528717 0.19163000583648682 -0.3024899959564209 0.5478500127792358 -0.3159399926662445 -0.08122199773788452 -0.6531000137329102 -0.1718199998140335 -0.3858399987220764 0.1066100001335144 0.3279600143432617 -0.19652999937534332 -0.5838199853897095 0.4263499975204468 -0.041172999888658524 0.06644800305366516 0.3282899856567383 -0.36952000856399536 0.15289999544620514 0.24459999799728394 0.7016299962997437 0.37880998849868774 0.11029999703168869 0.4359099864959717
notebook -0.24447999894618988 0.5237600207328796 -0.6320400238037109 -0.601580023765564 0.5267300009727478 -0.003084799973294139 -0.2563300132751465 0.08068300038576126 0.4652999937534332 -0.18453000485897064 0.07468900084495544 0.7608199715614319 0.5056999921798706 -0.40588000416755676 -0.09253799915313721 0.2033499926328659 -0.4007200002670288 0.04269099980592728 0.15074999630451202 -0.4654900133609772 -0.19158999621868134 -0.12771999835968018 -0.290910005569458 -0.2611300051212311 0.5204499959945679 -0.652679979801178 0.08707799762487411 -0.25418999791145325 1.0753999948501587 -0.4406599998474121 -0.17080000042915344 -0.07871799916028976 -0.5642099976539612 0.6319100260734558 -0.8715000152587891 -0.1880200058221817 -1.0592000484466553 -0.25758999586105347 -0.25387999415397644 -0.6108499765396118 -0.15831999480724335 -0.20913000404834747 -0.4525899887084961 -0.30682000517845154 0.7541000247001648 -0.004660999868065119 -0.11349999904632568 0.47415998578071594 0.13533000648021698 3.097200169577263e-05 0.8315200209617615 0.4812900125980377 -0.2575500011444092 -0.30017000436782837 -0.23851999640464783 -0.14327000081539154 -0.2975600063800812 -0.37042999267578125 0.5536699891090393 0.1740799993276596 -0.6909300088882446 0.31520000100135803 0.11191999912261963 1.3003000020980835 -0.3676300048828125 0.0984250009059906 -0.611270010471344 0.31158000230789185 -0.25266000628471375 -0.3534800112247467 0.6604800224304199 0.1861400008201599 0.0512470006942749 -0.03272800147533417 -0.4328800141811371 0.35126999020576477 -0.16313999891281128 -0.054329000413417816 0.4075300097465515 -0.005242600105702877 -0.1408199965953827 -0.2420700043439865 -0.7718700170516968 -0.28450000286102295 0.3908199965953827 -0.028863999992609024 -0.014414999634027481 0.43626001477241516 0.2948000133037567 0.15097999572753906 0.18671000003814697 -0.28016000986099243 -0.5865100026130676 -0.4430199861526489 0.721809983253479 0.21541999280452728 -0.5536800026893616 -0.6099299788475037 -0.21348999440670013 -0.6998999714851379 -0.15263999998569489 0.7601400017738342 0.23726999759674072 0.5264800190925598 -0.44516998529434204 -0.7348499894142151 0.5241600275039673 0.4172700047492981 -0.5647799968719482 0.16061000525951385 -0.22944000363349915 0.1534699946641922 0.4272199869155884 0.4157699942588806 -0.45177000761032104 -0.1298699975013733 -0.15119999647140503 0.20045000314712524 0.08687999844551086 -0.186939999461174 -0.04270099848508835 -1.086899995803833 0.2259099930524826 -0.43327999114990234 0.15222999453544617 0.21825000643730164 -0.41319000720977783 -0.3575800061225891 -0.05935800075531006 -0.09958899766206741 -0.2234400063753128 -0.5151699781417847 -0.615559995174408 0.45715999603271484 0.5011500120162964 -0.2743000090122223 0.40160998702049255 -0.2320999950170517 0.2768400013446808 -0.05405399948358536 0.40215998888015747 1.0812000036239624 0.12156999856233597 -0.4633699953556061 -0.05948299914598465 0.002881899941712618 -0.3400999903678894 -0.09003700315952301 0.039034001529216766 -0.22201000154018402 0.38916999101638794 0.46744000911712646 0.007872999645769596 -0.9226899743080139 -0.014697999693453312 -0.4198499917984009 -0.6111299991607666 0.7362200021743774 -0.0840039998292923 -0.035923998802900314 -0.6822599768638611 0.5630999803543091 0.1862799972295761 -0.08404500037431717 0.2932699918746948 0.31209999322891235 0.07381399720907211 0.2442999929189682 -0.614359974861145 -0.06018799915909767 -0.33574000000953674 -0.18279999494552612 -0.7477899789810181 0.6011199951171875 -0.6867200136184692 -0.5842599868774414 0.6347100138664246 0.08134999871253967 0.23568999767303467 -0.1222900003194809 0.49678000807762146 -0.24817000329494476 -0.038857001811265945 -0.34619998931884766 0.16027000546455383 -0.5579800009727478 0.6733300089836121 -0.2546899914741516 0.03482099995017052 -0.20488999783992767 -0.3651599884033203 0.40713998675346375 0.14834000170230865 0.16705000400543213 -0.26680999994277954 0.6925899982452393 -0.1046300008893013 0.4249899983406067 -0.2780500054359436 0.12238000333309174 0.367139995098114 0.013465000316500664 -0.14943000674247742 -0.2612299919128418 0.0022509999107569456 -0.7402600049972534 0.322050005197525 -0.3782300055027008 -0.2601900100708008 -0.27768000960350037 0.2490600049495697 0.2872999906539917 -0.11581999808549881 0.49494001269340515 0.32868000864982605 0.13517999649047852 -0.5247099995613098 0.5373200178146362 -0.26478999853134155 0.01614999957382679 0.2611300051212311 0.6530299782752991 -0.591729998588562 0.29423001408576965 0.5612000226974487 0.758080005645752 -0.19467000663280487 0.5743100047111511 0.1910099983215332 -0.5750300288200378 -0.06428799778223038 -0.06300800293684006 0.2154099941253662 -0.081727996468544 -0.1962900012731552 0.23120999336242676 0.7369599938392639 -0.02359599992632866 -0.8197100162506104 0.24327999353408813 0.4068099856376648 -0.05150099843740463 -0.6419600248336792 -0.13301999866962433 -0.005662300158292055 -0.015124999918043613 -0.48657000064849854 -0.031161999329924583 -0.3984900116920471 0.33820998668670654 -0.4002000093460083 0.13752000033855438 -0.0641079992055893 -0.035457998514175415 0.08541899919509888 -0.1471100002527237 0.639769971370697 -0.33360999822616577 0.8525699973106384 0.011865000240504742 -0.3854300081729889 -0.5311099886894226 -0.8386899828910828 -0.6876400113105774 0.5544599890708923 -0.2879300117492676 0.1176299974322319 0.9353600144386292 -0.18164999783039093 0.018279999494552612 0.08370599895715714 0.2514500021934509 0.9015300273895264 -0.47710999846458435 -0.12846000492572784 0.00485659996047616 -0.12913000583648682 1.0002000331878662 -0.26914000511169434 -0.1332699954509735 0.827459990978241 0.42520999908447266 -0.8312199711799622 0.6614099740982056 -0.3843599855899811 -0.28558000922203064 0.48987001180648804 -0.06438600271940231 -0.3275200128555298 -0.38971999287605286 -0.1394300013780594 0.02601500041782856 -0.19392000138759613 0.285180002450943 -0.4926399886608124 0.3458400070667267 0.5338699817657471 0.007561299949884415 0.07571300119161606 -0.15916000306606293
copybook 0.5858100056648254 0.23062999546527863 -0.45539000630378723 0.008434000425040722 0.27862998843193054 0.3615899980068207 0.2032099962234497 -0.3375999927520752 0.36090001463890076 0.6826500296592712 0.08647999912500381 -0.11706999689340591 -0.02487099915742874 -0.40994998812675476 -0.002869900083169341 -0.35791000723838806 0.5163999795913696 0.029888000339269638 0.15331000089645386 -0.8812800049781799 -0.13433000445365906 -0.2649399936199188 -0.24038000404834747 -0.08935999870300293 -0.10633999854326248 0.717519998550415 -0.05746300145983696 0.08891600370407104 0.5968999862670898 -0.5837100148200989 0.8573899865150452 0.13774999976158142 -0.05500800162553787 -1.0261000394821167 -0.33869001269340515 0.4719899892807007 -0.3627699911594391 -0.2259099930524826 -0.06201700121164322 0.1126599982380867 0.5870599746704102 0.32635998725891113 0.058171000331640244 -0.757889986038208 0.13760000467300415 0.6712899804115295 0.20834000408649445 -0.3548299968242645 -0.49810001254081726 -0.5282599925994873 0.0252080000936985 -0.30368998646736145 0.6189500093460083 0.22041000425815582 0.33528000116348267 -0.5844100117683411 0.24288000166416168 -0.33399999141693115 0.11135999858379364 0.2345699965953827 0.390390008687973 -0.1790899932384491 -0.23975999653339386 -0.3749699890613556 0.12293999642133713 0.5547400116920471 0.49880000948905945 -0.33678001165390015 0.5486099720001221 0.41297999024391174 0.0831189975142479 0.41071000695228577 -0.2666400074958801 0.5224300026893616 0.2948099970817566 0.4795700013637543 -0.35719001293182373 0.2700900137424469 -0.6849300265312195 0.4627000093460083 0.412090003490448 0.4919799864292145 0.07208400219678879 0.598550021648407 0.22773000597953796 -0.19280999898910522 -0.23019999265670776 -0.1972299963235855 0.6920300126075745 0.22746999561786652 0.246629998087883 -0.1624000072479248 0.26405999064445496 0.2696300148963928 -0.8119099736213684 -0.5384399890899658 0.43942001461982727 0.6337299942970276 -0.7365599870681763 -0.046091001480817795 0.44600000977516174 0.28327998518943787 0.2697699964046478 0.5221999883651733 -0.2799200117588043 -0.8324800133705139 -0.1594099998474121 0.1666799932718277 0.2483000010251999 -0.14166000485420227 -0.10972999781370163 0.3794499933719635 -0.2563000023365021 0.27987998723983765 0.11744000017642975 0.46790000796318054 -0.8477100133895874 -0.49272000789642334 0.34575000405311584 -0.05501599982380867 -0.2946299910545349 -0.13211999833583832 -0.07564699649810791 -0.17955000698566437 -0.33000999689102173 -0.16154000163078308 0.14830000698566437 -0.13550999760627747 0.2559700012207031 0.009179700165987015 0.25084999203681946 0.4742699861526489 0.6238700151443481 0.0014040999813005328 -0.39972999691963196 -0.332179993391037 0.5927600264549255 0.1898300051689148 -0.5811700224876404 -0.06970199942588806 -0.06295599788427353 0.4606800079345703 -0.08682599663734436 0.10440000146627426 0.6716200113296509 -0.6107199788093567 -0.3718700110912323 0.09275999665260315 0.40178000926971436 0.18930000066757202 -0.8046799898147583 0.37961000204086304 0.24422000348567963 -0.6729099750518799 -0.24222999811172485 -0.09522199630737305 -0.0748089998960495 0.363070011138916 0.5389000177383423 -0.009987600147724152 0.09953100234270096 -0.39699000120162964 0.4734100103378296 0.12291999906301498 1.0814000368118286 -0.8901000022888184 -0.428849995136261 0.24297000467777252 0.36157000064849854 0.001338499947451055 -0.07849700003862381 0.2614000141620636 -0.05236800014972687 -0.216839998960495 -0.03457200154662132 -0.1872200071811676 0.6523100137710571 0.11276999861001968 0.9330800175666809 -0.4229600131511688 0.4128299951553345 -0.30643001198768616 -0.23271000385284424 0.19821999967098236 -0.6088399887084961 -0.46239998936653137 0.14726999402046204 0.2671000063419342 -0.19360999763011932 0.021199999377131462 0.16001999378204346 -0.41064000129699707 0.01819399930536747 0.684719979763031 0.29350000619888306 -0.43268999457359314 -0.8489300012588501 0.4749400019645691 -0.7311099767684937 -0.41499999165534973 -1.195099949836731 -0.09939400106668472 -0.0189059991389513 -0.30928999185562134 0.35203999280929565 -0.8179799914360046 0.1137000024318695 -0.008608900010585785 -0.41113999485969543 0.2028599977493286 0.37046000361442566 -0.4338200092315674 -0.17765000462532043 -0.5351600050926208 0.4736799895763397 0.45012998580932617 -0.049897998571395874 -0.19648000597953796 -0.34624001383781433 0.15178999304771423 0.34567999839782715 1.0654000043869019 0.33000001311302185 0.036295000463724136 0.21921999752521515 -0.11455000191926956 -0.40891000628471375 -0.6353300213813782 -0.7022299766540527 -0.12403000146150589 -0.22991999983787537 0.14524999260902405 -0.3147599995136261 0.3227500021457672 -0.3766399919986725 -0.46827998757362366 -0.1957699954509735 -0.3273099958896637 0.11508999764919281 -0.7297199964523315 0.38148999214172363 -0.015390000306069851 -0.7297499775886536 -0.19393999874591827 -0.159170001745224 0.39675000309944153 0.07861600071191788 0.39353999495506287 -0.053238000720739365 0.21687999367713928 -0.16861000657081604 0.5573300123214722 0.5185400247573853 -0.20660999417304993 0.014074999839067459 0.7449399828910828 -0.7305700182914734 0.28005000948905945 0.30748000741004944 0.5119600296020508 -0.127470001578331 0.2915799915790558 0.4591200053691864 0.2809700071811676 -0.08620999753475189 -0.3440200090408325 -0.3631500005722046 -0.18126000463962555 -0.29135000705718994 -0.5651999711990356 -0.04110400006175041 0.4858500063419342 -0.7194499969482422 0.4947200119495392 -0.44110000133514404 -0.24062000215053558 0.7162500023841858 -0.14332999289035797 -0.47369998693466187 -0.427590012550354 -0.0255149994045496 0.2878200113773346 -0.6438500285148621 0.9480800032615662 0.18850000202655792 0.10993999987840652 -0.45996999740600586 -0.3612399995326996 0.7874900102615356 0.2891800105571747 0.24190999567508698 0.02544499933719635 -0.009306699968874454 -1.1222000122070312 -0.30320999026298523 0.008764799684286118 -0.2934400141239166 0.050377000123262405 0.1319900006055832 -0.5272600054740906
wastepaper 0.0054929000325500965 -0.15328000485897064 0.2239599972963333 -0.019386999309062958 -0.17847000062465668 0.11467000097036362 0.46939998865127563 -0.12695999443531036 0.30921998620033264 0.4653800129890442 -0.026373999193310738 -0.07972300052642822 0.3106499910354614 -0.23180000483989716 -0.14576999843120575 -0.5047799944877625 -0.09571599960327148 0.20584000647068024 0.469539999961853 0.4409100115299225 0.10129000246524811 -0.06664100289344788 -0.041540998965501785 0.05017400160431862 -0.25887998938560486 0.16433000564575195 -0.879040002822876 -0.003972399979829788 0.9448300004005432 -0.06756199896335602 -0.2959499955177307 -0.2798300087451935 0.3840300142765045 0.22800999879837036 0.41846999526023865 0.07578200101852417 -0.2918500006198883 -0.12022999674081802 -0.06827499717473984 0.4147599935531616 0.2124900072813034 0.051555000245571136 0.09121300280094147 -0.8090000152587891 -0.26888999342918396 0.10470999777317047 0.2747400104999542 0.48454999923706055 -0.4919700026512146 0.30702000856399536 -0.19088000059127808 -0.06800399720668793 0.01587199978530407 -0.31373998522758484 0.29253000020980835 -0.197610005736351 -0.41705000400543213 0.054575998336076736 -0.5476300120353699 0.08585000038146973 -0.1579899936914444 0.5667200088500977 -0.13297000527381897 -0.2621400058269501 0.21783000230789185 0.23357999324798584 -0.6234099864959717 -0.18332000076770782 0.031206000596284866 0.321289986371994 -0.16872000694274902 0.015615999698638916 -0.4135200083255768 -0.11668000370264053 0.164560005068779 0.57464998960495 -0.1682099997997284 -0.027093999087810516 0.44617000222206116 0.01914599910378456 -0.24289999902248383 -0.4077700078487396 -0.24819999933242798 -0.2544400095939636 0.5627700090408325 -0.4483799934387207 0.02185700088739395 -0.005092599894851446 0.00691650016233325 -0.47909000515937805 0.42072001099586487 -0.4262000024318695 0.5201500058174133 -0.0729139968752861 0.10202000290155411 -0.47652000188827515 -0.23292000591754913 0.5154200196266174 -0.1280200034379959 0.6341699957847595 0.09359999746084213 0.45364999771118164 -0.31025999784469604 0.21040000021457672 -0.29396000504493713 -0.2556900084018707 -0.1857299953699112 -0.011795000173151493 -0.12615999579429626 0.11918999999761581 -0.17430999875068665 0.4628399908542633 -0.20640000700950623 -0.22965000569820404 0.14842000603675842 -0.44405001401901245 0.19452999532222748 0.5108100175857544 -0.1227400004863739 0.5903400182723999 -0.15177999436855316 -0.5546799898147583 0.5633900165557861 0.5057299733161926 -0.3233500123023987 -0.015556000173091888 -0.208079993724823 -0.27270999550819397 0.5760599970817566 -0.22036999464035034 0.2157299965620041 -0.6068000197410583 -0.035996999591588974 -0.19814999401569366 0.37150999903678894 0.49132999777793884 -0.25694000720977783 0.35234999656677246 -0.34727999567985535 -0.21398000419139862 0.023111000657081604 0.06831199675798416 0.3946399986743927 -0.4187999963760376 0.7014999985694885 -0.5940499901771545 -0.01634399965405464 -0.21083000302314758 0.004660299979150295 -0.49149999022483826 -0.7052000164985657 -0.08219099789857864 -0.3589000105857849 -0.44132000207901 -0.6085799932479858 -0.3314099907875061 0.3833799958229065 -0.25176000595092773 -0.40053999423980713 0.45278000831604004 -0.526199996471405 0.03839699923992157 0.3580000102519989 0.27730000019073486 0.31424999237060547 -0.3374600112438202 0.20712000131607056 -0.16019000113010406 -0.15014000236988068 -0.11333999782800674 -0.3788500130176544 0.37046000361442566 0.17810000479221344 -0.3052400052547455 0.04345399886369705 -0.15012000501155853 0.03318699821829796 0.008997299708425999 0.26061999797821045 -0.14101000130176544 0.47870001196861267 -0.36103999614715576 -0.2345300018787384 -0.24174000322818756 -0.5333700180053711 0.08603700250387192 0.3226099908351898 0.22689999639987946 -0.24262000620365143 -0.17800000309944153 -0.011296000331640244 0.4290899932384491 -0.09390100091695786 -0.3175700008869171 0.05750099942088127 0.1526300013065338 -0.41488999128341675 0.030004000291228294 -0.15127000212669373 0.32559001445770264 -0.6235100030899048 -0.5824300050735474 0.4504599869251251 0.31477001309394836 0.40817001461982727 0.01447600033134222 -0.5476099848747253 0.25777000188827515 -0.23927000164985657 0.8798999786376953 -0.5667399764060974 0.392769992351532 -0.2845099866390228 0.06786300241947174 0.24608999490737915 0.5816100239753723 0.06377100199460983 -0.4118900001049042 -0.41863998770713806 0.07305599749088287 -0.41602998971939087 0.6904100179672241 0.03166300058364868 -0.2563300132751465 0.2560099959373474 -0.3353700041770935 0.20566999912261963 0.860319972038269 0.5168499946594238 0.04764899984002113 0.19125999510288239 0.09275899827480316 -0.23378999531269073 -0.22277000546455383 -0.304639995098114 0.5914199948310852 0.06066099926829338 -0.3999499976634979 0.07149600237607956 0.016767000779509544 -0.11333999782800674 -0.05269699916243553 -0.2095700055360794 0.41266998648643494 0.11967000365257263 -0.3592100143432617 0.30542001128196716 0.15390999615192413 0.03010600060224533 0.2817299962043762 -0.26118001341819763 -0.42087000608444214 0.327210009098053 -0.04613799974322319 0.5256999731063843 -0.4527899920940399 -0.19846999645233154 0.8872399926185608 -0.44453999400138855 -0.852180004119873 0.0769210010766983 -0.10114999860525131 -0.20829999446868896 -0.286080002784729 0.18100999295711517 -0.1751299947500229 0.09290699660778046 -0.02631000056862831 -0.1581999957561493 -0.7258800268173218 0.15062999725341797 -0.3955099880695343 -0.10005000233650208 0.26249998807907104 0.16752000153064728 -0.7859500050544739 0.42732998728752136 0.09499300271272659 -0.2978900074958801 0.17803999781608582 0.19859999418258667 -0.34417998790740967 -0.5561699867248535 0.21252000331878662 0.35308998823165894 0.18336999416351318 -0.02390800043940544 0.2115900069475174 -0.207069993019104 -0.05631199851632118 0.23627999424934387 0.004166800063103437 0.40231001377105713 -0.11754000186920166 0.5357900261878967 -0.42122000455856323 0.27524998784065247 -0.019058000296354294 0.5863199830055237 0.0970970019698143
key 0.20242999494075775 0.08856700360774994 0.04771500080823898 -0.6781299710273743 0.40773001313209534 -0.23218999803066254 -0.31255999207496643 -0.011064000427722931 -0.6118299961090088 -1.5499999523162842 -0.4703499972820282 -0.2791900038719177 -0.17414000630378723 0.2552199959754944 -0.018821999430656433 -0.22347000241279602 -0.03523100167512894 -0.3171600103378296 -0.08700200170278549 0.23196999728679657 -0.28148001432418823 -0.19469000399112701 0.358489990234375 -0.4288800060749054 -0.17925000190734863 -0.20884999632835388 -0.3470500111579895 0.2455500066280365 -0.2823899984359741 0.16143999993801117 0.122809998691082 0.19155000150203705 -0.579509973526001 0.4797700047492981 -0.7302299737930298 0.15448999404907227 0.3006100058555603 0.347680002450943 -0.5254899859428406 -0.5952600240707397 -0.03514900058507919 -0.24679000675678253 -0.48576998710632324 0.014063999988138676 -0.6512899994850159 0.19732999801635742 -0.20478999614715576 0.040998999029397964 -0.7447699904441833 0.37334001064300537 0.5678099989891052 0.010342000052332878 -0.07988899946212769 -0.0544469989836216 -0.34665998816490173 0.025978999212384224 0.1705400049686432 0.19091999530792236 0.22036999464035034 0.4023500084877014 0.2953700125217438 0.3255400061607361 -0.1555899977684021 0.12338999658823013 0.10397999733686447 0.006201600190252066 0.30967000126838684 0.30160000920295715 0.12060999870300293 0.2734600007534027 -0.5830000042915344 0.34995999932289124 0.11905000358819962 -0.40386998653411865 0.13321000337600708 0.010333999991416931 0.22220000624656677 0.1343899965286255 -0.4211300015449524 -0.004214299842715263 0.19167999923229218 -0.4560700058937073 0.11488000303506851 0.22594000399112701 0.2519800066947937 0.15317000448703766 -0.2848699986934662 0.1420699954032898 -0.4506100118160248 -0.36493998765945435 0.33153000473976135 0.2414499968290329 -0.40867000818252563 -0.21794000267982483 0.3165600001811981 0.03226400166749954 -0.05770900100469589 -0.29653000831604004 0.24018000066280365 -0.46303001046180725 -0.4139699935913086 0.4143800139427185 0.25821998715400696 0.05364200100302696 0.045226000249385834 -0.35705000162124634 -0.1741899996995926 0.05075899884104729 -0.29357999563217163 -0.1712000072002411 0.2890799939632416 -0.11612000316381454 -0.06818100064992905 0.20592999458312988 -0.020170999690890312 0.20300999283790588 0.24045999348163605 0.11889000236988068 -0.2276100069284439 -0.38453999161720276 -0.00886279996484518 -0.2614699900150299 0.2725299894809723 -0.36002999544143677 -0.2535899877548218 0.08224000036716461 -0.15126000344753265 -0.3108699917793274 -0.041437000036239624 -0.34161001443862915 -0.11196999996900558 0.09959100186824799 -0.4554300010204315 -0.13485999405384064 0.2209099978208542 -0.10107000172138214 0.41690000891685486 -0.3590700030326843 0.5817899703979492 0.19002999365329742 0.2584500014781952 -0.3565399944782257 0.2542800009250641 0.32433000206947327 -0.6231499910354614 0.3699600100517273 -0.34970998764038086 -0.04836500063538551 -0.473580002784729 -0.23916000127792358 0.2921000123023987 0.10814999788999557 -0.009099000133574009 0.08623600006103516 0.2246599942445755 -0.6055300235748291 -0.19307999312877655 -0.049550000578165054 -0.004373900126665831 0.3918200135231018 -0.16825999319553375 -0.007255000062286854 -0.044165000319480896 -0.05655699968338013 -0.1771100014448166 -0.030894000083208084 0.2610599994659424 -0.08443699777126312 -0.11716999858617783 0.7537099719047546 0.26872000098228455 -0.5215399861335754 -0.620140016078949 0.3102000057697296 0.1468999981880188 0.18977999687194824 0.42719000577926636 -0.0903559997677803 -0.3095400035381317 0.35607999563217163 -0.22380000352859497 0.056999001652002335 0.0814799964427948 -0.14680999517440796 -0.4054200053215027 -0.0602790005505085 -0.3032500147819519 0.017544999718666077 -0.17704999446868896 0.13269999623298645 0.17598000168800354 0.08682499825954437 -0.06350699812173843 0.25701001286506653 0.5196599960327148 -0.4370500147342682 -0.11231999844312668 -0.3031499981880188 -0.18966999650001526 -0.06819300353527069 0.938539981842041 -0.12520000338554382 0.055911000818014145 -0.15692000091075897 -0.3989199995994568 -0.05561500042676926 -0.03918899968266487 -0.18455000221729279 0.12713000178337097 0.36103999614715576 0.3839299976825714 -0.2980700135231018 0.5496500134468079 -0.06895899772644043 0.23598000407218933 0.6028100252151489 0.015204000286757946 0.42243000864982605 0.3174299895763397 0.29861000180244446 0.039354998618364334 -0.3468700051307678 0.23781999945640564 0.45629000663757324 0.3182699978351593 0.06888800114393234 -0.3374300003051758 0.6126899719238281 -0.310699999332428 0.08322200179100037 0.3137199878692627 -0.1592700034379959 0.22485999763011932 0.3975600004196167 0.3168199956417084 0.6861900091171265 0.16592000424861908 0.12291999906301498 0.23845000565052032 0.20995000004768372 -0.03892400115728378 0.396369993686676 0.297760009765625 -0.2258799970149994 -0.46171998977661133 -0.11958999931812286 -0.0032132999040186405 0.35899999737739563 -0.22176000475883484 -0.26927998661994934 -0.14256000518798828 -0.43773001432418823 -0.0037086999509483576 -0.35328999161720276 -0.31953999400138855 -0.4985499978065491 -0.17091000080108643 -0.11553999781608582 -0.04817099869251251 0.44444000720977783 0.2610900104045868 -0.16493000090122223 0.3541199862957001 0.302949994802475 -0.4073199927806854 0.11166000366210938 -0.013590999878942966 0.06391599774360657 -0.13605999946594238 0.16518999636173248 0.09781300276517868 0.06664899736642838 -0.2898100018501282 0.3146600127220154 -0.552619993686676 0.0030686999671161175 -1.6970000267028809 -0.09374500066041946 0.76214998960495 -0.08006999641656876 -0.25 0.31786999106407166 -0.2547599971294403 -0.24864999949932098 0.2868799865245819 -0.6273699998855591 0.10931000113487244 -0.3528900146484375 -0.012397999875247478 -0.3555299937725067 0.16419999301433563 -0.5167499780654907 0.20555000007152557 0.15859000384807587 0.03828300163149834 1.080199956893921 -0.14722999930381775 -0.8141000270843506 -1.0226999521255493 0.16731999814510345
umbrella -0.3658899962902069 -0.3364500105381012 -0.029113000258803368 -0.12239000201225281 -0.20295000076293945 -0.11142999678850174 -0.4089300036430359 0.8225499987602234 -0.31376001238822937 -0.8576499819755554 0.08291800320148468 0.560949981212616 0.0734340026974678 -0.0023221999872475863 0.42559000849723816 -0.045448001474142075 0.06351300328969955 0.6538400053977966 -0.26128000020980835 0.11320000141859055 0.35569998621940613 0.26381999254226685 0.35047000646591187 0.1812800019979477 -0.2254199981689453 -0.20176999270915985 -0.3098199963569641 0.047095999121665955 -0.27764999866485596 0.3698900043964386 -0.06141100078821182 -0.30623000860214233 0.19469000399112701 0.31558001041412354 0.15700000524520874 0.10920000076293945 0.425680011510849 -0.0769060030579567 -0.20563000440597534 -0.020829999819397926 0.1944500058889389 -0.03528999909758568 0.13524000346660614 -0.07173799723386765 -0.01236599963158369 -0.49090999364852905 -0.10542000085115433 -0.05601600185036659 -0.22296999394893646 -0.5318499803543091 -0.07609400153160095 0.16088999807834625 0.2835099995136261 0.2849099934101105 -0.1582300066947937 -0.15727999806404114 -0.18432000279426575 0.28380000591278076 0.5914700031280518 0.10819999873638153 0.3702000081539154 0.2806299924850464 -0.561519980430603 0.43560001254081726 -0.2352299988269806 0.4173800051212311 -0.4656299948692322 0.4325299859046936 -0.1711300015449524 0.27799999713897705 -0.4554300010204315 0.01763099990785122 -0.3673099875450134 -0.38120999932289124 -0.05229099839925766 -0.11266999691724777 -0.34613001346588135 -0.4450100064277649 0.1606599986553192 -0.03704100102186203 -0.32745999097824097 0.3059200048446655 -0.4609299898147583 -0.09326200187206268 -0.07014100253582001 -0.05080699920654297 0.08415199816226959 0.5723099708557129 -0.5198500156402588 -0.3674300014972687 -0.34325000643730164 -0.15770000219345093 0.14124999940395355 0.49101001024246216 -0.07101300358772278 0.20739999413490295 0.22419999539852142 0.24517999589443207 0.33809998631477356 0.12289000302553177 -0.039709001779556274 0.1473899930715561 -0.1400199979543686 -0.017159000039100647 0.608680009841919 -0.4347600042819977 -0.003941299859434366 -0.20562000572681427 0.1166900023818016 -0.4897499978542328 0.16979999840259552 -0.2848699986934662 0.01109199970960617 0.6704999804496765 -0.01638299971818924 -0.1050499975681305 -0.4198000133037567 0.24740999937057495 0.20537999272346497 0.11919999867677689 -0.07544700056314468 -0.09628800302743912 0.7263399958610535 0.8234999775886536 0.294869989156723 -0.29826998710632324 -0.016340000554919243 0.45061999559402466 0.0224239993840456 -0.061250001192092896 0.29486000537872314 -0.6112099885940552 -0.03996700048446655 -0.8087599873542786 0.08265399932861328 0.3246400058269501 -0.3645699918270111 -0.06748899817466736 -0.3415200114250183 -0.3401600122451782 -0.3322499990463257 0.35600998997688293 -0.14452999830245972 -0.06677799671888351 -0.12596000730991364 1.291599988937378 -0.06046000123023987 0.2688800096511841 0.28876999020576477 -0.13064000010490417 0.530460000038147 -0.011464999988675117 0.15150000154972076 0.07021600008010864 -0.6276100277900696 0.12173999845981598 -0.17002999782562256 -0.3136500120162964 0.033656999468803406 0.3964399993419647 -0.18264999985694885 0.07135099917650223 -0.4232099950313568 0.5058199763298035 -0.4060499966144562 -0.532289981842041 -0.31272000074386597 0.524590015411377 0.18261000514030457 -0.14618000388145447 0.023566000163555145 -0.1255899965763092 -0.38273000717163086 0.39552998542785645 0.28271999955177307 -0.5840799808502197 -0.18494999408721924 0.30785998702049255 -0.08482299745082855 -0.0728520005941391 1.205199956893921 -0.5178700089454651 0.5038300156593323 0.23954999446868896 0.10007999837398529 0.05209700018167496 0.012325000017881393 0.1837500035762787 0.28029999136924744 -0.4846299886703491 0.5837500095367432 0.023823000490665436 -0.22056999802589417 0.19186000525951385 -0.42122000455856323 0.21012000739574432 0.04560599848628044 0.43062999844551086 -0.07056199759244919 0.37220001220703125 0.4454300105571747 0.14640000462532043 0.11808999627828598 -0.14813999831676483 0.01965700089931488 0.07930299639701843 0.20850999653339386 -0.24759000539779663 0.2850300073623657 0.17036999762058258 -0.24532000720500946 0.33355000615119934 0.13966000080108643 0.09095100313425064 0.2366500049829483 -0.026458999142050743 0.15277999639511108 -0.09167999774217606 -0.15042999386787415 0.37286001443862915 0.17674000561237335 -0.3217400014400482 -0.2718900144100189 -0.09126400202512741 -0.10064999759197235 0.06856899708509445 -0.1493300050497055 -0.38207000494003296 0.12059000134468079 -0.023545999079942703 0.7928900122642517 -0.29111000895500183 0.22984999418258667 0.20407000184059143 0.3783999979496002 -0.1917400062084198 -0.22599999606609344 -0.0854559987783432 -0.12160000205039978 -0.4308600127696991 0.11063999682664871 -0.5700299739837646 -0.42414000630378723 -0.4916900098323822 -0.39768001437187195 -0.2561199963092804 0.10360000282526016 -0.2570500075817108 -0.42002999782562256 -0.15985000133514404 0.06956599652767181 0.06710600107908249 0.19178999960422516 -0.4337500035762787 -0.031293001025915146 -0.15626999735832214 -0.7382299900054932 -0.4539099931716919 0.05592299997806549 0.33013999462127686 -0.14038999378681183 0.09880699962377548 0.6939200162887573 0.6450099945068359 -0.6067100167274475 0.11479000002145767 -0.7744100093841553 0.5470399856567383 0.15497000515460968 0.13455000519752502 0.453249990940094 -0.04310299828648567 -0.25628000497817993 0.08166400343179703 -0.05881499871611595 -0.24898000061511993 -0.965749979019165 0.22216999530792236 0.21322999894618988 0.23973000049591064 0.2764500081539154 -0.7759199738502502 -0.27651000022888184 -0.07899100333452225 -0.19961999356746674 0.42653998732566833 0.5759900212287903 0.10862000286579132 0.23454999923706055 0.1122799962759018 0.3063099980354309 -0.22607000172138214 -0.35346001386642456 0.37755998969078064 -0.40606001019477844 0.6380500197410583 0.6103500127792358 0.3022499978542328 -0.3584800064563751 -0.12148000299930573
